image_id,dim_0,dim_1,dim_2,dim_3,dim_4,dim_5,dim_6,dim_7,dim_8,dim_9,dim_10,dim_11,dim_12,dim_13,dim_14,dim_15,dim_16,dim_17,dim_18,dim_19,dim_20,dim_21,dim_22,dim_23,dim_24,dim_25,dim_26,dim_27,dim_28,dim_29,dim_30,dim_31,dim_32,dim_33,dim_34,dim_35,dim_36,dim_37,dim_38,dim_39,dim_40,dim_41,dim_42,dim_43,dim_44,dim_45,dim_46,dim_47,dim_48,dim_49,dim_50,dim_51,dim_52,dim_53,dim_54,dim_55,dim_56,dim_57,dim_58,dim_59,dim_60,dim_61,dim_62,dim_63,dim_64,dim_65,dim_66,dim_67,dim_68,dim_69,dim_70,dim_71,dim_72,dim_73,dim_74,dim_75,dim_76,dim_77,dim_78,dim_79,dim_80,dim_81,dim_82,dim_83,dim_84,dim_85,dim_86,dim_87,dim_88,dim_89,dim_90,dim_91,dim_92,dim_93,dim_94,dim_95,dim_96,dim_97,dim_98,dim_99,dim_100,dim_101,dim_102,dim_103,dim_104,dim_105,dim_106,dim_107,dim_108,dim_109,dim_110,dim_111,dim_112,dim_113,dim_114,dim_115,dim_116,dim_117,dim_118,dim_119,dim_120,dim_121,dim_122,dim_123,dim_124,dim_125,dim_126,dim_127,dim_128,dim_129,dim_130,dim_131,dim_132,dim_133,dim_134,dim_135,dim_136,dim_137,dim_138,dim_139,dim_140,dim_141,dim_142,dim_143,dim_144,dim_145,dim_146,dim_147,dim_148,dim_149,dim_150,dim_151,dim_152,dim_153,dim_154,dim_155,dim_156,dim_157,dim_158,dim_159,dim_160,dim_161,dim_162,dim_163,dim_164,dim_165,dim_166,dim_167,dim_168,dim_169,dim_170,dim_171,dim_172,dim_173,dim_174,dim_175,dim_176,dim_177,dim_178,dim_179,dim_180,dim_181,dim_182,dim_183,dim_184,dim_185,dim_186,dim_187,dim_188,dim_189,dim_190,dim_191,dim_192,dim_193,dim_194,dim_195,dim_196,dim_197,dim_198,dim_199,dim_200,dim_201,dim_202,dim_203,dim_204,dim_205,dim_206,dim_207,dim_208,dim_209,dim_210,dim_211,dim_212,dim_213,dim_214,dim_215,dim_216,dim_217,dim_218,dim_219,dim_220,dim_221,dim_222,dim_223,dim_224,dim_225,dim_226,dim_227,dim_228,dim_229,dim_230,dim_231,dim_232,dim_233,dim_234,dim_235,dim_236,dim_237,dim_238,dim_239,dim_240,dim_241,dim_242,dim_243,dim_244,dim_245,dim_246,dim_247,dim_248,dim_249,dim_250,dim_251,dim_252,dim_253,dim_254,dim_255,dim_256,dim_257,dim_258,dim_259,dim_260,dim_261,dim_262,dim_263,dim_264,dim_265,dim_266,dim_267,dim_268,dim_269,dim_270,dim_271,dim_272,dim_273,dim_274,dim_275,dim_276,dim_277,dim_278,dim_279,dim_280,dim_281,dim_282,dim_283,dim_284,dim_285,dim_286,dim_287,dim_288,dim_289,dim_290,dim_291,dim_292,dim_293,dim_294,dim_295,dim_296,dim_297,dim_298,dim_299,dim_300,dim_301,dim_302,dim_303,dim_304,dim_305,dim_306,dim_307,dim_308,dim_309,dim_310,dim_311,dim_312,dim_313,dim_314,dim_315,dim_316,dim_317,dim_318,dim_319,dim_320,dim_321,dim_322,dim_323,dim_324,dim_325,dim_326,dim_327,dim_328,dim_329,dim_330,dim_331,dim_332,dim_333,dim_334,dim_335,dim_336,dim_337,dim_338,dim_339,dim_340,dim_341,dim_342,dim_343,dim_344,dim_345,dim_346,dim_347,dim_348,dim_349,dim_350,dim_351,dim_352,dim_353,dim_354,dim_355,dim_356,dim_357,dim_358,dim_359,dim_360,dim_361,dim_362,dim_363,dim_364,dim_365,dim_366,dim_367,dim_368,dim_369,dim_370,dim_371,dim_372,dim_373,dim_374,dim_375,dim_376,dim_377,dim_378,dim_379,dim_380,dim_381,dim_382,dim_383,dim_384,dim_385,dim_386,dim_387,dim_388,dim_389,dim_390,dim_391,dim_392,dim_393,dim_394,dim_395,dim_396,dim_397,dim_398,dim_399,dim_400,dim_401,dim_402,dim_403,dim_404,dim_405,dim_406,dim_407,dim_408,dim_409,dim_410,dim_411,dim_412,dim_413,dim_414,dim_415,dim_416,dim_417,dim_418,dim_419,dim_420,dim_421,dim_422,dim_423,dim_424,dim_425,dim_426,dim_427,dim_428,dim_429,dim_430,dim_431,dim_432,dim_433,dim_434,dim_435,dim_436,dim_437,dim_438,dim_439,dim_440,dim_441,dim_442,dim_443,dim_444,dim_445,dim_446,dim_447,dim_448,dim_449,dim_450,dim_451,dim_452,dim_453,dim_454,dim_455,dim_456,dim_457,dim_458,dim_459,dim_460,dim_461,dim_462,dim_463,dim_464,dim_465,dim_466,dim_467,dim_468,dim_469,dim_470,dim_471,dim_472,dim_473,dim_474,dim_475,dim_476,dim_477,dim_478,dim_479,dim_480,dim_481,dim_482,dim_483,dim_484,dim_485,dim_486,dim_487,dim_488,dim_489,dim_490,dim_491,dim_492,dim_493,dim_494,dim_495,dim_496,dim_497,dim_498,dim_499,dim_500,dim_501,dim_502,dim_503,dim_504,dim_505,dim_506,dim_507,dim_508,dim_509,dim_510,dim_511
room/room1.jpeg,0.15875831246376038,-0.027792394161224365,0.27931854128837585,0.07258462905883789,-0.232267826795578,-0.21025297045707703,0.13049909472465515,0.5549912452697754,0.14174120128154755,-0.34227392077445984,0.03400568291544914,0.0022401174064725637,0.0702010989189148,-0.29087749123573303,-0.015109431929886341,0.008797443471848965,-0.4808928668498993,-0.010644102469086647,-0.07591240853071213,0.20037305355072021,-0.1924067884683609,-0.20609420537948608,0.6748807430267334,0.24967870116233826,0.5147569179534912,0.11416439712047577,0.34149476885795593,0.003977913875132799,-0.23704612255096436,0.3368498384952545,0.05641938000917435,-0.4433131515979767,0.7286252379417419,0.21199816465377808,-0.683315098285675,0.11868494004011154,-0.11715728044509888,0.16108955442905426,0.346636563539505,0.9783862829208374,-0.33953630924224854,-0.2177698165178299,-0.10422340035438538,0.070277139544487,0.37065592408180237,-1.186997413635254,0.2761112451553345,0.195535808801651,-0.40604257583618164,0.5835996270179749,0.04492565616965294,0.11720620840787888,0.178419291973114,0.15439832210540771,0.17293360829353333,0.28504326939582825,-0.7654551863670349,-0.40803825855255127,-0.20950999855995178,0.32249903678894043,-0.41711801290512085,0.4849785566329956,0.09746406227350235,-0.5505707859992981,0.313861608505249,0.06814784556627274,-0.3048389256000519,0.33068424463272095,0.15091493725776672,-0.4038934111595154,0.17746968567371368,-0.06519115716218948,0.1274978518486023,0.07389286160469055,-0.4592534303665161,-0.13141602277755737,0.21085472404956818,0.06770418584346771,0.10574214905500412,-0.24679717421531677,-0.44416114687919617,0.09094724804162979,0.06791067123413086,-0.2706127464771271,0.08090623468160629,-0.10999850928783417,0.37987804412841797,-0.2139238566160202,-1.7774959802627563,0.3978668451309204,-0.016362177208065987,-0.8466932773590088,-6.671039581298828,0.6123760938644409,-0.4405558705329895,0.39922454953193665,0.07026826590299606,0.33826783299446106,0.35247594118118286,-0.17421026527881622,-0.27824753522872925,-0.407717764377594,0.5423250198364258,0.09472070634365082,-0.04564937204122543,0.2635325491428375,-0.3387010097503662,0.18041588366031647,-0.020579935982823372,0.3048240840435028,0.22757534682750702,0.822076141834259,-0.014499619603157043,0.12222717702388763,0.23214487731456757,0.012130483984947205,-0.28653982281684875,-0.10062822699546814,0.28535956144332886,-0.22414416074752808,-0.050023261457681656,-0.02148282714188099,0.1375473439693451,0.41075581312179565,-0.05501725152134895,0.25128862261772156,-0.057667411863803864,-0.2148648053407669,-0.14392639696598053,-0.4037066400051117,0.2285914123058319,-0.16156792640686035,0.0005310886772349477,0.8714189529418945,-0.14231638610363007,0.03279648348689079,0.33398470282554626,0.7071890234947205,-0.023015689104795456,0.009979398921132088,0.33806657791137695,-0.14217686653137207,0.44708606600761414,-0.04318036511540413,-0.27573853731155396,0.014236989431083202,0.25017017126083374,-0.29819774627685547,0.30211785435676575,0.3744884133338928,0.2568370997905731,0.30758848786354065,0.2075800597667694,-0.033012185245752335,-0.3686152398586273,-0.09255527704954147,-0.19405071437358856,-0.053662437945604324,0.11621109396219254,0.2512098252773285,0.6644437909126282,0.0648636668920517,0.22600898146629333,0.4734456241130829,0.29889267683029175,0.42375311255455017,-0.3876085579395294,-0.015130697749555111,0.027137376368045807,0.18546472489833832,0.11676280945539474,0.2372692972421646,-0.07425962388515472,0.29779574275016785,-0.3320290744304657,0.7046248912811279,-0.48867279291152954,-0.13867557048797607,-0.23047171533107758,-0.06487248837947845,0.19744424521923065,-0.38534703850746155,0.0003203290107194334,-0.11943525820970535,0.08530844748020172,0.33798128366470337,0.3186231851577759,-0.5190743207931519,0.1293070912361145,-0.10836455971002579,0.06625226885080338,-0.07778707891702652,0.08883001655340195,-0.35319218039512634,0.11741743236780167,0.07626071572303772,0.1951255202293396,0.4291238784790039,-0.447274774312973,0.14500533044338226,0.26954492926597595,-0.24302765727043152,0.024782439693808556,-0.3184020221233368,-0.2085115909576416,-0.02188809961080551,0.14588551223278046,-0.23838122189044952,-0.35057228803634644,0.05858217179775238,0.4996200501918793,-0.29817837476730347,-0.0017795541789382696,-0.02441610023379326,0.22125956416130066,0.20724059641361237,0.20601323246955872,0.41303732991218567,0.3114829659461975,-0.05019791051745415,0.8229197859764099,0.1969056874513626,0.31708475947380066,-0.3849455416202545,0.004447201732546091,-0.013299321755766869,0.2729215621948242,0.11713699251413345,-0.3571639060974121,-0.12629438936710358,0.3477991223335266,-0.09390442818403244,-0.20535597205162048,0.655566930770874,-0.08539190888404846,0.31020331382751465,-0.20769229531288147,0.16178995370864868,0.03886881098151207,-0.35481491684913635,-0.18445900082588196,-0.09258507937192917,0.06374400109052658,0.3339932858943939,0.028958985581994057,0.7652876377105713,-0.10457604378461838,0.13087283074855804,0.10192100703716278,-0.13358314335346222,-0.1667635589838028,0.01741597056388855,0.3917708098888397,-0.1877366006374359,0.1693362146615982,0.6921130418777466,0.32370537519454956,-0.04868554696440697,0.4818054437637329,-0.15116830170154572,0.3988688588142395,-0.01431970950216055,0.1426931917667389,1.2994979619979858,-0.4779616594314575,-0.3744330406188965,0.001381188863888383,0.14405661821365356,-0.29323679208755493,-0.13803669810295105,0.27435290813446045,-0.08925282210111618,-0.20055332779884338,0.22213099896907806,-0.31045037508010864,0.3832003176212311,0.3696436583995819,-0.3745388388633728,0.021296149119734764,-0.33071932196617126,0.4358164072036743,0.12296018749475479,0.14326034486293793,-0.11776316165924072,-0.08373814821243286,-0.17046421766281128,-0.45346301794052124,-0.20420710742473602,-0.169867143034935,0.3263149857521057,0.5195281505584717,0.05920492857694626,0.04634269326925278,0.3603612780570984,-0.6135100722312927,-0.17043441534042358,0.042751360684633255,0.12194912135601044,-0.5257046818733215,-0.20330941677093506,-0.19650974869728088,-0.07249349355697632,-0.47061818838119507,0.22555217146873474,0.16638220846652985,0.08244825154542923,-0.3090272843837738,-0.16512776911258698,0.2887498736381531,-0.2708464562892914,0.01653522439301014,-0.017771538347005844,0.86949223279953,-0.16686531901359558,-0.2624068856239319,0.22066406905651093,0.6656914353370667,0.36838793754577637,-0.038397807627916336,-0.7892453074455261,0.5770482420921326,0.5581081509590149,0.2216552048921585,-0.2603793740272522,0.3273262083530426,0.09827545285224915,0.19526134431362152,0.16290520131587982,0.1551118791103363,0.08922439068555832,0.32439950108528137,-0.31617480516433716,-0.08202525973320007,-0.3774695098400116,-0.3805524408817291,0.23182329535484314,0.40086767077445984,-0.010962376371026039,-0.5492914319038391,-0.215252086520195,-0.08365622162818909,-0.2904287278652191,-0.47355058789253235,0.07627041637897491,0.0948999673128128,-0.49466580152511597,-0.3236197531223297,0.06279522180557251,-0.20796342194080353,0.0074309092015028,-0.2408386915922165,0.13003012537956238,0.0586417093873024,0.02120049297809601,-0.03436462581157684,-0.6769111156463623,0.09168943762779236,0.6910789012908936,0.07001666724681854,-0.08514367043972015,-0.798515796661377,-0.04904625192284584,-0.15851283073425293,0.08888500928878784,-0.9816579818725586,0.16612491011619568,-0.07958997786045074,-0.8508356809616089,0.3222018778324127,-0.014241104014217854,0.11084317415952682,-0.21666747331619263,-0.04910008981823921,-0.05152619630098343,0.29343533515930176,-0.016335895285010338,0.8702210783958435,0.11514178663492203,0.24689465761184692,0.03004719875752926,-0.3128650188446045,-0.30178511142730713,-0.05745333805680275,-0.2824985682964325,0.1557319611310959,-0.36462658643722534,0.05917959287762642,-0.23398816585540771,0.09833065420389175,1.209692120552063,-0.10579687356948853,0.10913785547018051,-0.264401376247406,0.3164258897304535,-0.4462273418903351,-0.026512909680604935,0.2384951412677765,-0.39533284306526184,0.6124928593635559,-0.06477817893028259,0.26447802782058716,-0.20314186811447144,0.7238010168075562,-1.2410767078399658,0.25039413571357727,0.05082274228334427,0.24489939212799072,0.061064738780260086,-0.4272645115852356,-0.03240404650568962,0.5694292783737183,-0.32327190041542053,0.03966229036450386,-0.10131804645061493,0.15789304673671722,0.05354069918394089,0.16520178318023682,0.11938746273517609,-0.3853604793548584,-0.037180718034505844,0.14327998459339142,-0.08890167623758316,-0.15511177480220795,-0.6708187460899353,-0.7698855400085449,0.17481863498687744,-0.1910295933485031,-0.0625278502702713,-1.5247077941894531,0.3026297390460968,-0.05340820923447609,-0.2570103704929352,1.6986827850341797,0.1783517450094223,0.07756384462118149,-0.20489664375782013,-0.1441967487335205,0.30436399579048157,-0.4559851288795471,0.42139363288879395,-0.045476291328668594,0.21665872633457184,0.0734642818570137,0.47644320130348206,0.39651626348495483,0.075393445789814,0.5751081109046936,0.1300397515296936,-0.2278074473142624,-0.022023314610123634,0.049587469547986984,0.04366548731923103,0.12063220143318176,0.6752737164497375,-0.08454454690217972,0.24206355214118958,0.46221449971199036,0.4290899634361267,0.07339777797460556,-0.09680289030075073,-0.32833245396614075,0.11814815551042557,0.4877762794494629,0.19804470241069794,0.10759618133306503,-0.48252126574516296,0.2503350079059601,-0.13460639119148254,0.14258849620819092,-0.15070706605911255,0.12791123986244202,-0.13399794697761536,0.17242123186588287,-0.15508195757865906,0.3210039734840393,0.18466079235076904,0.027581864967942238,0.001825851621106267,0.22064976394176483,0.034429118037223816,-0.14130666851997375,-0.5453316569328308,0.5426588654518127,-0.010404402390122414,0.4973605275154114,0.5898751616477966,-0.11176136136054993,0.10782638192176819,-0.11110633611679077,-0.2470020353794098,-0.05710291117429733,-0.01393328607082367,0.22522811591625214,-0.5530816316604614,-0.49324578046798706,-0.44607675075531006,-0.026543138548731804,0.0976816862821579,-0.1308065503835678,0.08988945931196213,0.22354772686958313,0.17973466217517853,0.371770977973938,0.29019370675086975,-0.2971806228160858,-0.05915717035531998,-0.1432490199804306,0.22251412272453308,0.09372483938932419,0.19003981351852417,-0.004115994554013014,-0.42522361874580383
room/room2.jpeg,0.1913580745458603,-0.22492451965808868,0.27620401978492737,0.0011039129458367825,-0.07223119586706161,-0.26475265622138977,0.1544197052717209,0.43613573908805847,-0.23761184513568878,0.11647355556488037,-0.10695584118366241,-0.29832711815834045,0.11460050195455551,-0.6488200426101685,0.2660817503929138,0.3120530843734741,-0.25133392214775085,-0.004363207146525383,-0.4173489511013031,0.3145798146724701,0.3116590678691864,-0.18353299796581268,0.37483614683151245,0.3510545492172241,0.13598738610744476,0.21500283479690552,-0.009011698886752129,-0.07383835315704346,-0.21120496094226837,0.3717781901359558,0.2936544120311737,-0.050438035279512405,-0.2192545086145401,-0.026199493557214737,-0.6119210720062256,-0.1456172913312912,-0.34188705682754517,0.0718405470252037,-0.06129409745335579,0.47727102041244507,-0.34756574034690857,-0.2414083629846573,0.19276322424411774,-0.12041117250919342,-0.19576901197433472,-0.3531115651130676,-0.5601615905761719,-0.05171343684196472,0.1288440078496933,0.2638700306415558,0.34683167934417725,-0.36317312717437744,0.2584080994129181,0.2976102828979492,0.29437580704689026,0.1831529438495636,-0.17130699753761292,-0.6438219547271729,-0.05587601661682129,0.19399869441986084,0.05374281480908394,0.23630136251449585,0.04807111248373985,-0.47633466124534607,0.20276910066604614,-0.382357656955719,0.12680014967918396,0.07452812790870667,0.2236657440662384,-0.33059942722320557,-0.31290286779403687,0.10022715479135513,0.0033682524226605892,0.0380043163895607,-0.2099861204624176,-0.27067089080810547,-0.0012856314424425364,-0.15576687455177307,-0.12350764125585556,-0.36952701210975647,-0.33815646171569824,-0.18849535286426544,0.0681065246462822,0.6828595995903015,0.24534933269023895,0.2380908876657486,0.5548202991485596,-0.28693345189094543,-0.7625149488449097,0.14401952922344208,-0.014061170630156994,-0.44528457522392273,-6.752769470214844,0.22396957874298096,0.09203240275382996,0.06386662274599075,0.4779156744480133,0.10351197421550751,-0.2156611531972885,-0.026988234370946884,-0.4319317936897278,-0.21805711090564728,0.25581827759742737,0.23949430882930756,-0.07389581948518753,0.24471820890903473,-0.24823425710201263,0.23921240866184235,-0.04143935441970825,-0.11071939766407013,0.05696738883852959,0.7866080403327942,-0.31607940793037415,-0.4425879120826721,-0.0811145156621933,-0.17133890092372894,-0.06288137286901474,-0.3369489908218384,0.6177316308021545,-0.2592698335647583,0.29041653871536255,-0.312544584274292,0.2172042578458786,0.24433593451976776,0.20451197028160095,0.2921297252178192,0.09645702689886093,-0.28831368684768677,0.11439184099435806,-0.1574917882680893,0.162276953458786,0.2328144907951355,-0.09131971746683121,0.8894510865211487,0.1216212585568428,-0.3183598816394806,0.05108454078435898,0.4428413510322571,0.3125671446323395,0.1749875396490097,0.34244421124458313,-0.26100578904151917,0.731921374797821,0.0425732284784317,-0.3014867901802063,0.5201181769371033,0.16969357430934906,0.11235463619232178,0.09308289736509323,0.01023006346076727,0.3295690715312958,0.11172221601009369,0.17074178159236908,-0.746084988117218,-0.12323632836341858,-0.19156929850578308,-0.36650243401527405,0.22126397490501404,-0.03835097327828407,0.14562925696372986,0.5103570222854614,-0.18882004916667938,0.048778925091028214,0.23220479488372803,0.16019602119922638,0.5717425346374512,0.3383655846118927,-0.04572164639830589,-0.1939607858657837,0.05177206173539162,0.13913431763648987,-0.1593509465456009,-0.07627282291650772,-0.06621147692203522,-0.2556673586368561,0.6009664535522461,0.37829121947288513,-0.043979447335004807,-0.27573657035827637,0.08255168050527573,-0.497998982667923,-0.21769596636295319,-0.25487154722213745,0.07394839078187943,-0.21685758233070374,-0.11580030620098114,0.09614153206348419,-0.470184326171875,-0.11982507258653641,-0.3057035505771637,0.014670881442725658,-0.0120032774284482,0.12070717662572861,-0.534461259841919,-0.14030081033706665,-0.2122013419866562,0.5265884399414062,0.5273239016532898,-0.6670677065849304,0.009419653564691544,-0.25367239117622375,-0.033054132014513016,0.19698841869831085,-0.1973387748003006,0.16309106349945068,-0.20941583812236786,-0.05568603053689003,-0.20838385820388794,-0.2800467014312744,0.43562644720077515,-0.048685573041439056,-0.022451957687735558,0.1314554363489151,-0.011985627003014088,-0.5157576203346252,-0.10663781315088272,-0.30755552649497986,0.27200978994369507,0.8899165987968445,0.09339942038059235,0.6545155048370361,0.576448917388916,-0.15544408559799194,-0.04625001177191734,-0.4463091790676117,0.29987791180610657,0.001322970842011273,-0.16063739359378815,-0.26327022910118103,-0.5840471386909485,0.4166683554649353,-0.02160676196217537,0.2679200768470764,0.9590277075767517,-0.33470892906188965,0.647811233997345,0.016913065686821938,-0.014990980736911297,0.2909158170223236,-0.3418358266353607,0.025472033768892288,-0.1254277527332306,-0.17496275901794434,0.07744743674993515,0.27471819519996643,0.8201658129692078,-0.2578791677951813,-0.17573827505111694,0.0433230921626091,0.4123104512691498,-0.03531704097986221,0.2295098900794983,0.11637188494205475,0.254734605550766,-0.31658971309661865,0.5008838176727295,-0.2083282321691513,-0.1193031594157219,0.42544639110565186,-0.17973731458187103,-0.17183883488178253,-0.012768655084073544,0.38854455947875977,0.6975066065788269,0.09595436602830887,-0.1843137890100479,-0.514723002910614,0.1402904987335205,-0.32386404275894165,0.15366017818450928,-0.027076059952378273,-0.002152611967176199,0.14078055322170258,-0.013740581460297108,-0.16662238538265228,0.356938898563385,0.6257264018058777,-0.48161086440086365,-0.02420332469046116,-0.07044356316328049,0.6123446226119995,0.07731018960475922,0.0701967105269432,0.4705907702445984,0.4391206204891205,-0.7400882244110107,-0.4333581328392029,0.35781458020210266,-0.19079892337322235,-0.19792483747005463,0.1726505309343338,-0.042042165994644165,0.31068727374076843,0.2629169821739197,-0.1134280189871788,-0.1580556333065033,-1.2096713781356812,-0.36068034172058105,-0.12274537235498428,0.04229263216257095,-0.19585996866226196,0.2134261578321457,-0.3482051193714142,0.5869207978248596,0.31620171666145325,-0.14692257344722748,0.26611456274986267,-0.10831546038389206,0.2483869045972824,-0.24589738249778748,0.14613482356071472,0.46326637268066406,0.8868196606636047,-0.05619274452328682,-0.144467294216156,0.026036277413368225,0.9968974590301514,0.7294675707817078,-0.12172725051641464,-0.2922966182231903,0.4612294137477875,1.457186222076416,0.21153944730758667,0.09045013785362244,0.5053269267082214,-0.2695090174674988,0.4029051959514618,0.021733231842517853,-0.19242846965789795,0.21853969991207123,-0.10928293317556381,0.06011316552758217,0.36532092094421387,-0.6227463483810425,-0.12157148867845535,-0.08395081013441086,0.30684298276901245,-0.39837437868118286,0.022145384922623634,0.06687367707490921,0.07746022939682007,-0.47869983315467834,0.12260335683822632,0.17270970344543457,0.10440395772457123,-0.4120924174785614,0.015669265761971474,0.29450109601020813,-0.08879183232784271,-0.07989075034856796,0.31148186326026917,0.05495167151093483,-0.03270723670721054,0.15680307149887085,-0.12776412069797516,-0.15294986963272095,-0.07945124059915543,0.9397321939468384,0.2368469536304474,-0.18796709179878235,-0.7730110287666321,-0.2911715507507324,0.3513088822364807,-0.06867814809083939,-0.9377540946006775,0.13736064732074738,-0.010216760449111462,0.46989956498146057,-0.009743337519466877,-0.13600124418735504,0.3555770218372345,0.07965923100709915,0.13131311535835266,0.2986460030078888,0.09780123829841614,0.3161240518093109,1.6990758180618286,0.2739259600639343,1.312208890914917,0.32800689339637756,-0.08063575625419617,-0.12190268188714981,0.030830182135105133,-0.3734744191169739,0.48741614818573,-0.5346891283988953,-0.2470332831144333,0.09141427278518677,-0.04247018322348595,0.692786455154419,0.058199815452098846,-0.1991465836763382,-0.41545310616493225,0.5763440132141113,-0.4142853617668152,0.13044878840446472,0.5220174789428711,-0.1894885003566742,0.46680521965026855,-0.4753498435020447,0.13023756444454193,-0.00419246219098568,0.37255600094795227,-1.339202880859375,0.5395780205726624,0.05925002321600914,0.18626676499843597,0.21428531408309937,-0.061752982437610626,-0.42201364040374756,0.5114026665687561,-0.2080257534980774,-0.16124525666236877,-0.3965931534767151,-0.0038082380779087543,0.7595509886741638,-0.23049625754356384,-0.010246656835079193,-0.46448126435279846,-0.33299174904823303,0.005755665246397257,-0.12613187730312347,0.13044458627700806,-0.35055020451545715,-0.14582277834415436,0.30017518997192383,0.009182197041809559,0.42101821303367615,-1.6144473552703857,0.07642442733049393,0.04875617101788521,-0.6042269468307495,1.091473937034607,0.1285063773393631,0.08491712063550949,-0.0634366050362587,0.06963986158370972,-0.16375774145126343,-0.2632734179496765,0.20756126940250397,0.10914167016744614,0.0508483462035656,0.20705567300319672,0.27792054414749146,0.6941807866096497,-0.034975115209817886,0.0333995521068573,-0.03376896679401398,-0.03970777988433838,-0.5014711618423462,0.2983211278915405,-0.13328920304775238,0.2334114909172058,0.38796466588974,-0.19463397562503815,-0.16051322221755981,0.4788379967212677,0.39504101872444153,0.3572430908679962,0.15314477682113647,-0.4517301023006439,-0.09046410769224167,0.2659624218940735,0.11984376609325409,-0.16381801664829254,-0.03484516218304634,0.16500873863697052,-0.1030702218413353,-0.3105502128601074,-0.23293334245681763,0.06387893855571747,0.18554353713989258,0.18096491694450378,-0.3906981647014618,0.22960487008094788,-0.13716533780097961,0.0464455671608448,0.307350218296051,0.2712991237640381,-0.08145001530647278,-0.08862929791212082,-0.6453214287757874,-0.290131151676178,0.05981826409697533,0.730798602104187,0.6059998869895935,-0.14894899725914001,0.18347656726837158,-0.059652749449014664,-0.1541147083044052,0.3049224019050598,0.395224928855896,0.10359510779380798,-0.552568256855011,-0.17153498530387878,0.06502567231655121,0.010004010051488876,-0.10687782615423203,0.12013386189937592,-0.3648592531681061,0.18113824725151062,0.1930125206708908,0.7308287024497986,0.002352735958993435,-0.2273547351360321,0.4330192506313324,-0.13737069070339203,0.007755184080451727,-0.10103558003902435,0.002776889828965068,-0.23229622840881348,-0.14284949004650116
room/room3.jpg,0.3395546078681946,0.31241464614868164,-0.0010220779804512858,0.005067942664027214,0.22135664522647858,-0.1628725826740265,-0.36623555421829224,-0.06791677325963974,-0.38303229212760925,0.17844773828983307,-0.07239135354757309,-0.14901965856552124,0.09148624539375305,-0.4339900612831116,0.30373916029930115,0.00863094162195921,-0.6840977072715759,-0.09572547674179077,-0.2368547022342682,0.10554791986942291,0.136592298746109,-0.3329010009765625,-0.1930653601884842,0.6439712047576904,-0.17810261249542236,0.22078832983970642,-0.26255130767822266,-0.17552223801612854,-0.11874288320541382,0.07772756367921829,0.04011332243680954,0.07680918276309967,-0.25985488295555115,0.19097377359867096,-0.4231850504875183,0.24621957540512085,0.09071718901395798,0.126411572098732,0.13154229521751404,2.234405994415283,-0.13565191626548767,-0.21091090142726898,-0.304443359375,-0.3271622657775879,0.3007456958293915,-2.0587542057037354,-0.3775009214878082,0.11909172683954239,-0.27940833568573,0.19491760432720184,0.6009079217910767,0.33049359917640686,0.025142541155219078,0.055389150977134705,-0.28539806604385376,0.021273110061883926,-0.04589169844985008,-0.5446223616600037,-0.40308117866516113,-0.20601190626621246,-1.8462200164794922,0.10922214388847351,0.5153874754905701,-0.09098510444164276,0.1009230688214302,-0.08009613305330276,0.22906015813350677,0.4101620316505432,0.48305603861808777,-0.1871539056301117,0.16768451035022736,-0.08221767097711563,-0.31687575578689575,-0.018061833456158638,-0.21683628857135773,0.42537593841552734,-0.00950203649699688,0.2075231671333313,0.04565904289484024,-0.45477524399757385,-0.36222735047340393,-0.4018746018409729,-0.3213289678096771,0.3115822672843933,0.046575792133808136,-0.42240002751350403,0.8254780769348145,0.04941750317811966,-0.8138891458511353,-0.08471471816301346,-0.1413394659757614,-0.2945897877216339,-5.898082733154297,0.22351831197738647,-0.10124632716178894,0.21314118802547455,0.3140676021575928,0.3927787244319916,0.278240829706192,-0.6194450259208679,0.062284521758556366,-0.03709084540605545,-0.1467626988887787,0.13274696469306946,0.39483314752578735,0.44414079189300537,0.021378308534622192,-0.4553922414779663,0.03665456175804138,0.3229852318763733,-0.4241577386856079,0.5980489253997803,-0.005519603844732046,-0.3622070550918579,-0.12412641197443008,-0.2919863164424896,0.21219119429588318,0.18690969049930573,0.35197725892066956,0.14199578762054443,0.26171883940696716,-0.00030066288309171796,0.47684401273727417,0.5496867895126343,-0.2611556053161621,0.006867600604891777,0.16732877492904663,-0.35456621646881104,-0.08715451508760452,-0.0843559056520462,0.16282181441783905,0.09870637953281403,-0.3611839711666107,0.7328169345855713,0.18395015597343445,-0.08308161795139313,0.15359610319137573,0.4420589208602905,-0.2751734256744385,0.31208011507987976,-0.09073194116353989,-0.06228641793131828,0.04848596453666687,0.21982789039611816,0.13479475677013397,-0.06323762238025665,-0.14562436938285828,0.11037746071815491,0.12960408627986908,-0.21689888834953308,-0.36947986483573914,0.14162927865982056,1.6448191404342651,-0.34106066823005676,0.25860074162483215,-0.34268221259117126,0.054998043924570084,-0.006376657169312239,0.4335300922393799,0.05222924053668976,-0.027128348127007484,-0.2508687973022461,0.024822460487484932,0.22996261715888977,0.21151785552501678,-0.08643168210983276,-0.10531342774629593,0.010256040841341019,0.26011136174201965,-0.41974979639053345,0.16889336705207825,-0.11266577243804932,0.10861962288618088,0.06397364288568497,-0.40813979506492615,-0.11802604049444199,0.03616353124380112,-0.03530574589967728,-0.5524005889892578,-0.27674931287765503,0.11559630185365677,0.07227742671966553,0.02317984774708748,-0.5317002534866333,-0.07202299684286118,-0.09691512584686279,0.4675462543964386,-0.3477984666824341,-0.0323992520570755,-0.2374565452337265,-0.1545506715774536,-0.11119170486927032,-0.09325060993432999,-0.44888409972190857,-0.7717109322547913,0.2698449492454529,0.5731940269470215,0.7041833400726318,-0.5485852956771851,0.26192885637283325,0.02249416895210743,0.07703603059053421,0.04072128236293793,0.4674689471721649,0.32239648699760437,-0.38263246417045593,-0.036736808717250824,0.19526171684265137,-0.1550663858652115,0.49717840552330017,-0.3108859360218048,-0.07306868582963943,-0.08400493860244751,-0.3542879819869995,-0.43969443440437317,-0.3416407108306885,-0.034983228892087936,0.11524565517902374,1.1058710813522339,-0.17369334399700165,0.03365129977464676,0.5000461339950562,-0.08153669536113739,-0.4059489965438843,0.25725656747817993,-0.016326239332556725,-0.02445656806230545,-0.19537919759750366,-0.12418342381715775,0.13076233863830566,0.07240018248558044,-0.1547071486711502,0.17587348818778992,0.6224367618560791,-0.13657112419605255,-0.05883511155843735,-0.020038872957229614,-0.1716487556695938,-0.2853774130344391,-0.22809453308582306,0.027446746826171875,0.6042465567588806,0.1271996647119522,-0.6217495799064636,0.09143606573343277,0.4891159236431122,-0.3046939969062805,-0.5452328324317932,-0.3324301838874817,-0.1604575514793396,0.6099042296409607,0.567635715007782,0.3112805187702179,0.1727769523859024,0.24177968502044678,0.06177405267953873,0.15622125566005707,0.19168353080749512,-0.20849457383155823,-0.38383588194847107,-0.11733048409223557,0.3518106937408447,0.6778173446655273,0.3318254053592682,-0.22323888540267944,-0.3215806782245636,-0.051175881177186966,0.6478161811828613,-0.16635534167289734,0.13237778842449188,-0.031997695565223694,0.16880080103874207,0.14796754717826843,-0.39220109581947327,-0.25472408533096313,-0.45949915051460266,0.28129705786705017,-0.4013790786266327,-0.10221712291240692,-0.33096572756767273,0.46014371514320374,-0.34431129693984985,-0.2073739618062973,0.3236696124076843,0.268228679895401,-0.22184321284294128,-0.26254382729530334,-0.006282811518758535,-0.19167467951774597,-0.22166694700717926,0.12245252728462219,0.02855469286441803,0.4556722044944763,-0.03090352565050125,-0.32253608107566833,-0.21357664465904236,-0.47517141699790955,-0.060539137572050095,0.27701157331466675,-0.12459389865398407,-0.3779754042625427,0.020217878744006157,-0.41039538383483887,0.05156037211418152,0.6494415998458862,-0.3378593921661377,0.13905107975006104,0.09899304807186127,0.7472074031829834,-0.7204134464263916,-0.150612011551857,0.031155819073319435,0.7295067310333252,-0.1371646225452423,-0.27593693137168884,-0.03544231876730919,0.7260209321975708,0.8987208008766174,0.06424935162067413,-0.39103636145591736,0.44401827454566956,1.6544196605682373,0.0036532175727188587,-0.2138397991657257,-0.1814846247434616,-0.21073396503925323,0.3246534466743469,0.21592281758785248,0.2706204354763031,-0.41678598523139954,-0.05338234454393387,0.09049186110496521,-0.15169881284236908,-0.2632024884223938,-0.03664903715252876,0.43937626481056213,0.21212400496006012,-0.1341947615146637,-0.5854929685592651,-0.3013685345649719,-0.022403616458177567,-0.366590291261673,0.08463361859321594,0.24290211498737335,0.4217607378959656,-0.06506645679473877,-0.014027449302375317,0.379069983959198,0.18257194757461548,-0.2445964515209198,0.46988382935523987,0.15713194012641907,-0.11874829977750778,-0.2214295119047165,0.13336822390556335,-0.2742099165916443,-0.3488050699234009,-0.5471717715263367,-0.11483918130397797,-0.3682582974433899,-0.2895163297653198,-0.21662108600139618,-0.0813378170132637,0.4747442305088043,-0.49397873878479004,-0.18413129448890686,-0.02989802695810795,-0.2538492977619171,0.185649111866951,-0.23791350424289703,0.2422177940607071,-0.03261056914925575,0.4062988758087158,0.2275228649377823,0.6311644315719604,0.31488674879074097,0.7970670461654663,0.06766600906848907,0.5268896818161011,0.38086679577827454,-0.2590411603450775,-0.18799690902233124,0.023322220891714096,-0.016453817486763,0.20208068192005157,-0.466436505317688,-0.028774943202733994,0.013143433257937431,0.068416066467762,0.30081549286842346,0.006767844781279564,0.1959112584590912,-0.717896580696106,0.20542515814304352,-0.37293320894241333,0.3638334274291992,0.22410830855369568,0.31340301036834717,-0.27317699790000916,0.30077776312828064,-0.01391541212797165,-0.07826381176710129,1.14695143699646,-0.5780656933784485,0.22369970381259918,0.02447598986327648,0.18608920276165009,0.047666870057582855,0.48200684785842896,0.07128843665122986,0.323304682970047,0.1847992241382599,0.00760065158829093,0.12945666909217834,-0.06353847682476044,-0.08435776084661484,-0.2679194211959839,0.4095754325389862,-0.5478454828262329,-0.5977858304977417,0.34025099873542786,-0.458193838596344,-0.003482758067548275,-0.26595813035964966,-0.26005229353904724,-0.08360318839550018,0.35873472690582275,0.44758880138397217,-2.0788016319274902,-0.19294466078281403,-0.38984042406082153,-0.17708458006381989,1.535524606704712,0.6341533660888672,0.05552288517355919,-0.395850270986557,0.5347213745117188,-0.28055310249328613,0.3343137204647064,0.029575495049357414,-0.1328766942024231,0.39529362320899963,0.23737333714962006,0.5227919816970825,0.39854979515075684,0.19086576998233795,-0.11992014199495316,0.05902871489524841,0.07072090357542038,-0.5164740681648254,-0.23923061788082123,-0.24596235156059265,0.11301786452531815,0.28017812967300415,0.1389279067516327,-0.12535910308361053,0.4305368661880493,-0.14874674379825592,0.29706257581710815,0.2674793004989624,-0.32396844029426575,0.3601185083389282,0.18795651197433472,-0.3490329384803772,-0.15631885826587677,0.1856575906276703,-0.35961711406707764,-0.2301836907863617,-0.013103526085615158,-0.07193555682897568,0.07393526285886765,-0.036671631038188934,0.5545457601547241,-0.4590523838996887,-0.05103074014186859,-0.22677329182624817,0.1234874278306961,0.1579388976097107,-0.04401110112667084,-0.1293228715658188,0.038408342748880386,-0.4317612051963806,-0.16546887159347534,0.40658894181251526,1.014194130897522,0.35977697372436523,-0.4246790111064911,0.2579352855682373,0.25484439730644226,-0.19490353763103485,0.18914303183555603,0.02828117273747921,0.4915049076080322,-0.009131033904850483,0.03600084036588669,0.04126565158367157,0.07985665649175644,0.2484930008649826,-0.03058677539229393,-0.2126602828502655,0.10663624852895737,-0.12875975668430328,0.4577263593673706,0.10157833993434906,1.0532870292663574,0.430463582277298,-0.37082639336586,0.22169248759746552,-0.08333740383386612,0.5817899703979492,-0.13560223579406738,-0.20950035750865936
house/images-pool.jpeg,0.6527191400527954,0.15386630594730377,-0.058546654880046844,-0.22637112438678741,0.17965853214263916,-0.3213643729686737,-0.15635289251804352,0.5659424662590027,0.6195776462554932,-0.09478294104337692,0.04145858809351921,-0.05641155317425728,-0.49747025966644287,-0.11983077228069305,-0.3697066009044647,-0.36033564805984497,0.3816472887992859,-0.3373924791812897,-0.18897661566734314,0.19416368007659912,0.3647727370262146,0.3422662913799286,-0.032157812267541885,0.49165138602256775,0.02626114711165428,0.47094056010246277,-0.5644398927688599,0.2204522341489792,-0.16859246790409088,0.6851470470428467,0.3786937892436981,-0.21707814931869507,-0.11295562982559204,-0.015010369941592216,-0.1819532960653305,0.28845295310020447,-0.20723222196102142,0.29440024495124817,0.6648296117782593,1.6732873916625977,-0.3450995981693268,0.2536725699901581,-0.32899877429008484,-0.08511456847190857,0.3107096254825592,0.13618431985378265,-0.22317789494991302,0.13198213279247284,0.16114825010299683,0.027317050844430923,0.1397966593503952,0.47812581062316895,-0.06412099301815033,0.06675790995359421,0.016416897997260094,-0.5028825998306274,-0.7000522613525391,-0.05661561340093613,-0.0004457042959984392,0.06595037877559662,-1.3485939502716064,0.36126431822776794,-0.20975828170776367,-0.42646563053131104,-0.48597145080566406,0.11761455982923508,-0.10817954689264297,0.2730769217014313,-0.03976580128073692,0.40009310841560364,-0.08476577699184418,0.14630131423473358,0.19886623322963715,-0.7803359627723694,-0.4107251763343811,-0.16522802412509918,-0.09831789880990982,-0.23335935175418854,0.7265331745147705,-0.1751619428396225,-0.14893753826618195,-0.1438423991203308,0.009994412772357464,0.5297133326530457,0.08776096999645233,-0.3299870491027832,-0.3476221561431885,-0.35758498311042786,-0.4227728247642517,0.12478155642747879,-0.0958995521068573,-0.6013633608818054,-6.453929901123047,-0.11278479546308517,-0.21002186834812164,-0.08885730057954788,0.30584704875946045,0.8193615078926086,-0.44458019733428955,-0.8182846307754517,-0.17078803479671478,0.16836337745189667,0.07335865497589111,0.1944214403629303,0.17336106300354004,0.02441415563225746,0.5031269788742065,-0.17785808444023132,0.22106914222240448,0.252621054649353,0.14210368692874908,0.9946199059486389,0.25145870447158813,-0.09804244339466095,-0.13851909339427948,-0.1962079256772995,-0.061309777200222015,0.27802813053131104,0.2743084728717804,0.20740807056427002,-0.052220895886421204,0.31600165367126465,0.5478693842887878,0.32034555077552795,0.2203058898448944,0.3993619978427887,-0.2792346477508545,0.03224364295601845,-0.06749013811349869,0.19147415459156036,-0.1267671138048172,-0.2043468952178955,-0.2604098320007324,0.854926586151123,0.35709646344184875,0.008876604028046131,0.41073405742645264,0.7259165048599243,0.20206543803215027,-0.08495346456766129,0.24437348544597626,0.391756534576416,0.08761067688465118,0.2201717346906662,0.20999163389205933,-0.011612658388912678,0.2682780921459198,-0.07803592830896378,-0.09110095351934433,0.11146233230829239,0.2976936995983124,-0.2257165163755417,0.7523564100265503,0.13944390416145325,0.21535556018352509,-0.14866502583026886,-0.00532841682434082,0.13870596885681152,-0.3388524651527405,0.12224519997835159,0.39574161171913147,0.22637057304382324,-0.09572667628526688,-0.12007548660039902,0.028522657230496407,0.499898225069046,-0.5795903205871582,-0.4703688323497772,0.2261497527360916,0.3739457130432129,-0.304334819316864,-0.08592060208320618,-0.24321088194847107,-0.04594435170292854,-0.2811232805252075,0.7091618776321411,-0.11037400364875793,-0.45534417033195496,-0.6989724636077881,-0.23386606574058533,0.0874706581234932,-0.08988075703382492,0.08656289428472519,-0.39159801602363586,0.20195376873016357,0.1539951115846634,0.1641114503145218,-0.5387623310089111,0.14388170838356018,-0.10265649855136871,0.15369585156440735,-0.5134655833244324,0.21144172549247742,-0.18062791228294373,-0.3530496656894684,0.4130053222179413,0.32787492871284485,0.03768085315823555,0.02707306668162346,0.3310718834400177,0.13095438480377197,0.160671204328537,0.17733925580978394,-0.06984352320432663,0.10414478927850723,-0.3919792175292969,0.034087810665369034,0.1346394419670105,-0.34050610661506653,-0.08611559867858887,0.41006332635879517,-0.6502018570899963,0.05949533358216286,-0.06384075433015823,-0.19276954233646393,0.09212681651115417,0.3457828462123871,0.2768569588661194,0.386750191450119,-0.1946699023246765,0.25368475914001465,0.17343372106552124,0.2617618143558502,-0.2051333785057068,0.15813207626342773,0.29240545630455017,0.05477271229028702,-0.4782727062702179,-0.38552120327949524,-0.17654235661029816,0.13869650661945343,-0.2048611044883728,0.15355852246284485,0.39039358496665955,-0.07636016607284546,-0.26759570837020874,-0.09126275777816772,-0.14736267924308777,-0.44780102372169495,-0.08112023025751114,0.5587918162345886,-0.03757210820913315,-0.13083069026470184,0.2134552150964737,-0.13354699313640594,0.8822486400604248,-0.47066718339920044,-0.0063872369937598705,0.07225082814693451,-0.17132142186164856,0.37749969959259033,0.018053021281957626,0.5052216649055481,-0.1968964785337448,0.12422055006027222,0.1537666618824005,0.422163188457489,0.19858106970787048,0.7603322863578796,-0.13000524044036865,-0.061408162117004395,-0.48528409004211426,0.19024865329265594,1.2011011838912964,0.2954772114753723,0.057600535452365875,0.25362923741340637,0.32820746302604675,-0.4208580553531647,0.2401660978794098,-0.24533312022686005,-0.14084407687187195,0.5725035071372986,0.3948802947998047,0.08557618409395218,-0.10346723347902298,0.45314955711364746,-0.14770269393920898,-0.26861196756362915,0.049515921622514725,-0.11205895990133286,0.4445433020591736,-0.049544982612133026,0.2073788344860077,0.16399043798446655,0.04574809595942497,-0.09658952802419662,-0.11036035418510437,-0.10994479805231094,-0.037392958998680115,0.1148901954293251,0.11545052379369736,0.36666813492774963,0.2016279101371765,0.1377580761909485,-0.154132679104805,0.33516058325767517,-0.33092889189720154,-0.15985946357250214,0.06096361577510834,0.031648315489292145,-0.28909265995025635,-0.3431137800216675,0.3528478145599365,0.21842846274375916,-0.16501747071743011,-0.306587815284729,0.14995433390140533,0.6178115606307983,0.26507872343063354,-0.07879786193370819,0.11608118563890457,0.8526145219802856,0.2409706711769104,-0.29530468583106995,0.19965136051177979,-0.01200489979237318,0.46520185470581055,-0.2115279734134674,-0.16304871439933777,0.5888439416885376,1.2537930011749268,0.15110722184181213,0.3479630947113037,0.1485973745584488,-0.44447121024131775,0.24160197377204895,-0.18478891253471375,0.3246443569660187,-0.11038404703140259,-0.3258601129055023,-0.38665616512298584,0.027941150590777397,0.014403430745005608,-0.3088180422782898,0.37333571910858154,0.1637713462114334,-0.29153457283973694,-0.3278301954269409,-0.1917855441570282,0.11693200469017029,-0.391446590423584,-0.12277691811323166,0.2556241452693939,0.3445636034011841,0.04460957646369934,0.14647163450717926,0.12253230810165405,0.0736331194639206,-0.07259052991867065,0.7549747824668884,0.01213450450450182,0.2336728423833847,0.06770490109920502,-0.03442937135696411,-0.513791024684906,-0.03034309670329094,-0.2478354573249817,0.034526851028203964,-0.42578595876693726,-0.9824696779251099,-0.22560828924179077,0.463665634393692,0.2112671136856079,-0.2687619626522064,-0.22339357435703278,-0.11445286870002747,-0.6301195025444031,-0.1692727655172348,0.12503387033939362,0.21972768008708954,-0.5231889486312866,0.0939132422208786,0.24249158799648285,0.3869529068470001,0.17148777842521667,0.14549367129802704,0.017380474135279655,0.9856522679328918,0.31563887000083923,-0.0068588643334805965,0.1716804802417755,-0.5394003391265869,0.022436607629060745,0.2404790073633194,-0.5293071866035461,-0.07824897021055222,-0.2900645434856415,0.23472361266613007,0.2780657410621643,-0.3142918646335602,-0.10449028760194778,0.030000055208802223,0.016771331429481506,-0.22287601232528687,-0.44020840525627136,-0.28687793016433716,0.05025211721658707,-0.055537667125463486,0.43501588702201843,0.4276113212108612,0.22976478934288025,0.5650040507316589,-0.5526114702224731,0.2301361858844757,-0.11013772338628769,-0.2819594442844391,-0.14147762954235077,0.090837761759758,-0.10271083563566208,-0.2602037787437439,0.12360143661499023,0.40384843945503235,-0.31222355365753174,0.38383644819259644,-0.24916034936904907,-0.48577481508255005,-0.4155009388923645,-0.2811211943626404,0.16667266190052032,0.6056629419326782,-0.6346887350082397,0.3107602894306183,-0.3399336338043213,-0.013774453662335873,0.3102869689464569,0.11309079825878143,0.49133673310279846,-2.545018196105957,-0.08004079759120941,0.15114876627922058,-0.5175368189811707,0.4905654489994049,0.618232786655426,0.1677473783493042,0.04523647204041481,-0.1180361956357956,0.25449833273887634,0.21941888332366943,-0.004705801606178284,-0.4565565288066864,0.2791457176208496,-0.0434490442276001,0.10377576947212219,0.19769731163978577,0.1966734528541565,0.4890826642513275,0.12171060591936111,0.06402957439422607,0.17435097694396973,0.526586651802063,-0.2702847421169281,-0.10184337198734283,1.2161420583724976,-0.6692960858345032,0.2611927092075348,0.7560081481933594,-0.2671815752983093,-0.22403399646282196,-0.334382027387619,0.0779552161693573,0.0974612757563591,0.0402974970638752,0.06317855417728424,0.009492762386798859,-0.26772773265838623,0.08480533212423325,-0.3876934051513672,-0.5323057770729065,-0.10668957233428955,0.10198750346899033,-0.27370142936706543,0.6084275245666504,-0.19438287615776062,0.38139837980270386,-0.29352349042892456,-0.3150566518306732,-0.07424163073301315,-0.20719604194164276,-0.06888510286808014,-0.23827596008777618,-0.9414833188056946,0.18481804430484772,-0.2743626534938812,0.10313894599676132,0.4390295445919037,0.17196695506572723,-0.1473139375448227,0.10892210155725479,-0.13571353256702423,0.12299585342407227,0.08636844903230667,0.4879840314388275,-0.20994587242603302,-0.6041563153266907,0.28865963220596313,0.05755280330777168,0.2591177225112915,0.28323301672935486,0.15977005660533905,0.2148531824350357,-0.22575749456882477,0.06202401965856552,-0.2798323631286621,-0.44002479314804077,0.5516337156295776,-0.20356646180152893,0.32471686601638794,0.102650485932827,0.041904352605342865,0.28610289096832275,-0.5164653658866882
house/house3.jpg,0.3056091368198395,0.15176966786384583,-0.002450651489198208,-0.1146676242351532,-0.15940871834754944,-0.06701140105724335,0.41794493794441223,0.22511067986488342,0.7384089827537537,0.11073824018239975,0.029793700203299522,0.024152500554919243,0.40846702456474304,-0.11675239354372025,0.4614332914352417,-0.16220051050186157,-0.17899030447006226,-0.47855210304260254,-0.2520398795604706,0.16686013340950012,0.6264598965644836,0.07409109175205231,0.2415149211883545,0.08079489320516586,0.12734398245811462,0.528548002243042,0.4401971101760864,-0.016219964250922203,-0.08310839533805847,0.2821337580680847,-0.19052492082118988,-0.029816389083862305,0.06732111424207687,-0.28766098618507385,0.3235403597354889,0.14146535098552704,-0.20796361565589905,0.3368028700351715,0.18171711266040802,1.5934585332870483,0.6741741895675659,0.19352984428405762,-0.25389164686203003,-0.4074367880821228,0.11062811315059662,-1.5149641036987305,-0.14708496630191803,-0.04369422048330307,0.02010897547006607,-0.385477215051651,0.9351921081542969,0.33715561032295227,-0.132914200425148,-0.48279449343681335,-0.40472498536109924,0.3957429528236389,-0.09679162502288818,0.09730079025030136,0.45050811767578125,0.36231687664985657,-1.0296063423156738,0.4329550266265869,-0.35363075137138367,-0.027440322563052177,0.11677555739879608,0.15739455819129944,0.22706112265586853,1.089626669883728,-0.06826626509428024,0.025133149698376656,-0.41478079557418823,-0.1066465899348259,-0.5449347496032715,-0.8407759070396423,-0.24628786742687225,-0.16840288043022156,-0.19284838438034058,-0.09350412338972092,-0.0658888965845108,-0.4178524911403656,-0.5257644057273865,-0.06900175660848618,-0.5637468695640564,-0.07609587162733078,-0.044387344270944595,0.1555088758468628,-0.4924335777759552,-0.18125896155834198,-0.27613672614097595,-0.044392988085746765,0.18643534183502197,-0.1481868177652359,-5.6631760597229,0.6215654611587524,-0.13345324993133545,0.057994235306978226,0.12942667305469513,-0.4443758428096771,0.26136350631713867,-1.0046865940093994,-0.05571898818016052,0.06571314483880997,-0.5811231732368469,0.15323908627033234,0.5497708320617676,0.154788538813591,-0.4505820572376251,0.1882954239845276,0.1306677609682083,0.37407273054122925,0.2559346854686737,-0.38675686717033386,0.14847835898399353,-0.2114255726337433,0.07137918472290039,-0.018541404977440834,-0.32952627539634705,0.3251793086528778,0.3693417012691498,-0.5080834627151489,-0.3014150559902191,0.5107096433639526,0.39819544553756714,-0.340029239654541,0.13768388330936432,0.39586153626441956,0.210126131772995,-0.34744903445243835,-0.07603336870670319,0.14225701987743378,-0.17291034758090973,0.31291767954826355,-0.1503351926803589,0.8119107484817505,-0.5267333984375,0.09886123985052109,0.3275204300880432,0.014772200025618076,-0.03223121538758278,0.10163211077451706,-0.27855005860328674,0.17312327027320862,0.3268832564353943,-0.1261397749185562,-0.3544304370880127,-0.09331835061311722,-0.11605801433324814,0.11122489720582962,-0.14180825650691986,0.015335959382355213,0.3141481280326843,-0.3516702353954315,0.31449469923973083,0.3952844440937042,0.12692061066627502,-0.6425233483314514,-0.04716886952519417,-0.05740683153271675,0.2479921132326126,0.3590339124202728,0.07560449838638306,-0.08079257607460022,-0.17223137617111206,-0.15564852952957153,0.2246108055114746,-0.03359372913837433,1.240957498550415,0.05305330082774162,0.29210343956947327,-0.1676611602306366,-0.36504924297332764,0.15792955458164215,-0.10919017344713211,0.38426366448402405,-0.15413205325603485,-0.01967811770737171,-0.4920591115951538,-0.29172155261039734,0.058012284338474274,-0.03715306147933006,0.37533360719680786,-0.21247372031211853,-0.3639759421348572,-0.10087946802377701,-0.33037903904914856,-0.009008001536130905,-0.15218575298786163,-0.4398214817047119,-0.7470277547836304,0.3125806748867035,0.09744342416524887,-0.24536141753196716,-0.10646163672208786,0.032567478716373444,0.36986207962036133,-0.37155091762542725,0.25887373089790344,0.04113372042775154,-0.37171149253845215,-0.356083482503891,-0.14123965799808502,-0.25789958238601685,0.6112984418869019,0.1990162432193756,-0.11348617076873779,-0.0422159805893898,-0.5094295740127563,-0.3041188418865204,0.14469094574451447,0.4092293977737427,-0.7604502439498901,0.3548845052719116,-0.1614587903022766,0.4863935112953186,0.2507045567035675,-0.20043577253818512,0.5477360486984253,0.10040047019720078,0.3597491681575775,-0.20690730214118958,0.0964917242527008,0.4534211754798889,0.17023542523384094,-0.5052048563957214,-0.06777383387088776,0.37085479497909546,-0.03741643950343132,-0.37531334161758423,0.3144190013408661,0.3084263503551483,0.36911115050315857,0.2391463965177536,-0.3309934735298157,-0.08460614830255508,-0.17500415444374084,-0.8849980235099792,-0.001587867271155119,-0.09778796136379242,0.11954797804355621,-0.10262447595596313,0.2618846893310547,0.0038829923141747713,0.22078438103199005,0.20154309272766113,0.1273234635591507,-0.2359340786933899,0.06785580515861511,0.28349071741104126,-0.021838219836354256,-0.07004474848508835,-0.5104666352272034,0.20962044596672058,0.6215757727622986,0.2707444131374359,0.04299715533852577,-0.03609110414981842,-0.045426640659570694,-0.01889563910663128,1.8633415699005127,-0.09770869463682175,-0.08644397556781769,-0.06611480563879013,0.20371370017528534,1.8067426681518555,0.04508504644036293,-0.6452116966247559,-0.21758520603179932,0.33594873547554016,-0.15349729359149933,0.41134825348854065,-0.18256120383739471,0.23322232067584991,0.009797099977731705,-0.21844196319580078,0.08687032014131546,0.14606574177742004,0.013014922849833965,-0.2683984041213989,-0.25861856341362,0.2331121861934662,0.4452832341194153,0.2368285357952118,-0.7562170624732971,0.19905035197734833,0.33313512802124023,0.10772580653429031,-0.7810905575752258,0.5082576870918274,0.19560188055038452,-0.3132323920726776,-0.14198985695838928,-0.22625720500946045,0.46255195140838623,-0.02227550745010376,-0.20877781510353088,-0.23991966247558594,0.11425217986106873,0.2494131326675415,0.17632286250591278,0.037647612392902374,0.17158061265945435,0.1214291974902153,-0.2761417329311371,-0.28787940740585327,0.07706817239522934,0.05910627171397209,-0.41701051592826843,-0.08268988877534866,0.40189847350120544,0.7008547186851501,-0.3523256480693817,0.5685549974441528,0.8105775713920593,0.15565791726112366,-0.21318918466567993,0.1530279964208603,0.45522385835647583,-0.02028612047433853,-0.051291823387145996,-0.4866291284561157,0.03761899471282959,1.4946694374084473,-0.169254869222641,-0.1379738599061966,-0.04909816384315491,-0.2559868097305298,0.32506731152534485,0.31978458166122437,-0.08684892952442169,-0.17740625143051147,-0.4683651328086853,0.18103693425655365,0.11546222865581512,-0.04704942926764488,0.03216738626360893,0.056251462548971176,0.1578226536512375,-0.47842881083488464,0.2799059748649597,0.1723618358373642,0.39353814721107483,-0.4186469316482544,0.12298041582107544,0.21862538158893585,-0.11013209074735641,-0.1378260850906372,-0.00995911005884409,-0.13147757947444916,-0.03225577622652054,-0.36847710609436035,0.26148340106010437,-0.29476845264434814,-0.09756184369325638,-0.14861169457435608,-0.3921942412853241,0.15192396938800812,-0.19521737098693848,0.0797303095459938,0.01019803062081337,0.37779486179351807,-0.39756372570991516,-0.20951567590236664,0.06760671734809875,-0.23418353497982025,0.16206689178943634,0.20803488790988922,0.14922522008419037,-0.35924458503723145,-0.3211277425289154,0.742782711982727,0.03952133655548096,0.218097984790802,0.1391851156949997,0.3392985165119171,-0.07017353922128677,-0.248937726020813,0.5210292935371399,0.2606889307498932,-0.07363942265510559,0.381087988615036,0.4110242426395416,0.11951997131109238,-0.24315078556537628,-0.55931156873703,-0.03545321896672249,-0.36389046907424927,-0.06350794434547424,-0.16166628897190094,-0.2086881697177887,1.688778042793274,-0.12672655284404755,0.10686714947223663,0.34816113114356995,0.2864711284637451,-0.2976894676685333,-0.23715905845165253,0.20204339921474457,-0.11825751513242722,-0.03162994235754013,-0.022831115871667862,0.20006604492664337,-0.604735255241394,0.0075279478915035725,-0.13479642570018768,-0.026249926537275314,-0.009591668844223022,0.2951042354106903,-0.5149942636489868,-0.1263437718153,-0.33089715242385864,0.0488574281334877,-0.11099744588136673,0.01945977844297886,-0.5112435221672058,-0.3329661190509796,0.207318976521492,0.3119339048862457,0.08887569606304169,-0.05135663226246834,-0.22059185802936554,-0.21380318701267242,0.04785320162773132,0.4737333357334137,-0.5505979061126709,0.04647339880466461,0.042046114802360535,0.15681356191635132,0.514162003993988,-1.6945061683654785,0.09746032953262329,-0.6768967509269714,-0.2575037181377411,0.5862934589385986,0.4043654203414917,-0.4043848514556885,-0.3474886119365692,0.23974032700061798,0.2795439660549164,-0.046592965722084045,-0.050877999514341354,0.23451422154903412,-0.347379595041275,-0.4370630085468292,0.13565956056118011,-0.4385834336280823,0.05878712609410286,0.2089570164680481,-0.24132324755191803,0.0188462994992733,-0.7264727354049683,0.018107181414961815,-0.22611066699028015,0.2002946436405182,0.9521173238754272,-0.25519201159477234,0.11636591702699661,0.09239803999662399,-0.42984533309936523,-0.01331824529916048,-0.1257130652666092,0.017181506380438805,0.014564468525350094,-0.508497953414917,-0.35321044921875,0.5308145880699158,0.031355105340480804,0.5196153521537781,-0.23701335489749908,-0.5247852802276611,0.17612090706825256,0.20608220994472504,-0.4275939464569092,-0.2839408218860626,-0.5021170973777771,-0.09683335572481155,0.04513506963849068,-0.024577107280492783,0.03834889084100723,-0.04956474527716637,-0.33580338954925537,-0.12284309417009354,-1.0351816415786743,-0.13946160674095154,-0.3445078730583191,-0.2397131770849228,0.2734743356704712,-0.15082992613315582,0.2026686668395996,0.20629094541072845,-0.10543237626552582,0.017657427117228508,0.2306145578622818,0.42290541529655457,-0.11215443164110184,-0.07454769313335419,-0.11315478384494781,-0.014013398438692093,0.1365915983915329,-0.4112124443054199,0.27189573645591736,0.18317994475364685,-0.09427237510681152,0.2722735106945038,0.15129509568214417,-0.7484665513038635,-0.12453283369541168,-0.09644019603729248,-0.29469066858291626,0.3419667184352875,0.13408949971199036,-0.06572799384593964,0.202236607670784
house/house2.jpg,0.0972285196185112,0.3570789098739624,0.10956944525241852,-0.011131972074508667,0.06658661365509033,-0.3239525556564331,0.023044580593705177,-0.2932891845703125,0.2741473615169525,0.2963874042034149,0.0946488156914711,-0.05002664029598236,-0.19279932975769043,-0.16066251695156097,0.2446376532316208,-0.4139428436756134,0.5444424748420715,0.4944654405117035,-0.03234738111495972,0.0727798342704773,1.2222349643707275,0.1494550108909607,0.24980823695659637,0.36599263548851013,-0.10178852081298828,-0.07665947079658508,0.2847731411457062,-0.18346674740314484,0.2934631407260895,0.2246343344449997,0.107331283390522,-0.1000998318195343,0.06414219737052917,0.469774454832077,-0.17640921473503113,-0.2606064975261688,0.1685890555381775,-0.0011742101050913334,0.40923893451690674,1.6763896942138672,0.2011072188615799,0.03479214757680893,-0.05677106976509094,-0.10838126391172409,0.31243693828582764,-1.8224607706069946,-0.1779308319091797,-0.26835206151008606,0.1659015417098999,-0.06302422285079956,0.08819492161273956,0.048101168125867844,-0.22781507670879364,-0.24431373178958893,0.18338322639465332,-0.004256455693393946,-0.13390789926052094,-0.1014556884765625,-0.3711255192756653,-0.46370333433151245,-0.824144721031189,-0.2889462411403656,-0.1733558028936386,-0.20218031108379364,-0.24412794411182404,-0.48550012707710266,0.5174540877342224,0.7116951942443848,-0.2181096374988556,-0.28503161668777466,0.07425627112388611,0.001103128306567669,-0.07398900389671326,0.035208430141210556,0.11223287135362625,-0.3650999069213867,-0.3457183241844177,-0.36897677183151245,-0.1269315481185913,0.07436738908290863,-0.4746294617652893,-0.010770956054329872,-0.6407922506332397,0.37978118658065796,-0.20811845362186432,-0.2677386999130249,-0.34594327211380005,0.1489662528038025,-0.19494114816188812,-0.013154332526028156,-0.11390677094459534,-0.1814260333776474,-5.2161335945129395,-0.06299155950546265,-0.36045214533805847,0.04111939296126366,0.034007344394922256,0.21507740020751953,-0.09739077091217041,-0.4989343285560608,-0.030558548867702484,-0.006301112938672304,-0.2202206403017044,-0.0322362557053566,0.36690598726272583,0.030137911438941956,-0.6410214304924011,0.3543657660484314,0.11643096804618835,-0.1652921438217163,-0.02131531573832035,-0.1855052411556244,-0.12433535605669022,-0.028287459164857864,-0.08985138684511185,0.23242703080177307,-0.18016020953655243,0.43472379446029663,0.1188703179359436,0.03562626242637634,-0.04463360086083412,-0.35132619738578796,0.1849842071533203,-0.29764360189437866,0.07492341846227646,0.10451512038707733,-0.041976384818553925,0.2555914521217346,-0.04507686197757721,0.42298856377601624,0.5725072622299194,0.4549001455307007,-0.5894269347190857,0.706413209438324,-0.4503547251224518,0.1270701140165329,0.4036039412021637,0.08452735841274261,0.38438838720321655,0.24242886900901794,0.45490625500679016,0.3143429756164551,0.16564235091209412,-0.5095226168632507,-0.4111374616622925,-0.11832971125841141,0.2922304570674896,0.004298125859349966,-0.37097394466400146,-0.4813835918903351,-0.09718286991119385,0.3131931722164154,0.21396426856517792,0.35304322838783264,0.1097755879163742,-0.43942704796791077,-0.40232881903648376,-0.24345824122428894,0.09238576143980026,0.0396503247320652,-0.05914970859885216,-0.2828335165977478,-0.324368953704834,-0.5236367583274841,0.9345044493675232,-0.3550565540790558,0.959610641002655,0.2515944838523865,0.3530590236186981,-0.18121111392974854,-0.3935201168060303,0.018528111279010773,-0.3620457947254181,0.6518878936767578,0.079813651740551,0.15107163786888123,1.3521093130111694,-0.1078713983297348,0.004763208795338869,-0.023767314851284027,0.09067510813474655,-0.09891075640916824,-0.22204548120498657,-0.18363752961158752,-0.16244825720787048,0.14426009356975555,-0.0173973236232996,-0.2543506622314453,-0.3776492178440094,0.2791573703289032,0.20457659661769867,-0.1048567071557045,-0.2411254644393921,-0.2177286446094513,-0.4065982699394226,0.0006684574764221907,0.5952866077423096,0.19960154592990875,0.28014087677001953,-0.13732419908046722,-0.4709646701812744,-0.12478713691234589,0.18932126462459564,0.4952669143676758,0.10163967311382294,0.14937926828861237,-0.39837536215782166,0.14043322205543518,-0.18706776201725006,0.09643571078777313,-0.7341106534004211,0.009017843753099442,-0.19670826196670532,0.23744574189186096,-0.1849803924560547,-0.25525280833244324,0.032305341213941574,-0.05779765546321869,1.470926284790039,0.18838699162006378,0.06195893511176109,0.8540614247322083,0.06280066817998886,-0.3891535699367523,-0.18663516640663147,-0.13582494854927063,0.12954863905906677,0.3523368239402771,0.007741962559521198,0.12327087670564651,0.6898107528686523,-0.19873471558094025,-0.36968234181404114,0.3445747494697571,0.04359375312924385,-0.22966721653938293,-0.22271257638931274,0.06448119133710861,-0.08438356220722198,0.09694956243038177,0.1667407900094986,0.021710965782403946,-0.11688078939914703,-0.2584042549133301,0.014807818457484245,-0.057573795318603516,0.11801580339670181,0.10550674796104431,-0.14289605617523193,-0.3027552664279938,0.11674139648675919,0.38470259308815,0.07810252904891968,0.28959906101226807,-0.015252770856022835,0.1787566840648651,0.29938775300979614,0.26022255420684814,2.1261518001556396,0.12470705062150955,-0.0484873503446579,0.028682241216301918,0.6990962028503418,2.09666109085083,0.3090254068374634,0.14890490472316742,0.3405177891254425,0.1688985377550125,0.05044882372021675,0.5587142705917358,-0.3737143874168396,0.23288169503211975,0.089711993932724,-0.009345426224172115,0.31860241293907166,-0.38382330536842346,-0.48698872327804565,0.2046079933643341,-0.26776280999183655,-0.17993764579296112,0.6491881608963013,-0.10516519099473953,-0.4829258322715759,0.4275839626789093,0.13369083404541016,0.6882951855659485,0.9540960788726807,0.030531415715813637,-0.41838550567626953,-0.1384926438331604,0.33434462547302246,-0.07919542491436005,0.2906443476676941,-0.18071779608726501,0.07805787026882172,-0.0672319084405899,0.4750451147556305,0.15190668404102325,0.010486820712685585,0.1374172568321228,0.25145861506462097,-0.18936054408550262,-0.6682517528533936,-0.2637178599834442,0.2222692370414734,-0.21262522041797638,-0.5103605389595032,-0.17037136852741241,0.6867245435714722,0.25179606676101685,-0.4961349070072174,0.19389013946056366,0.702120840549469,-0.4546036422252655,-0.1367906928062439,0.17885936796665192,0.18621544539928436,0.4284507930278778,-0.10749047994613647,-0.9508107900619507,0.25216397643089294,1.8932771682739258,0.5070158839225769,-0.36708664894104004,0.10630083829164505,-0.5055120587348938,0.07567485421895981,-0.04160168394446373,0.23840360343456268,-0.49402618408203125,-0.04654592648148537,0.19027383625507355,0.4452059864997864,-0.1461993306875229,-0.26666536927223206,-0.10052233189344406,0.04003920778632164,-0.0030665595550090075,-0.37009912729263306,-0.26974642276763916,0.038389526307582855,-0.3124237656593323,0.22163818776607513,0.25130754709243774,-0.11533471941947937,-0.12414780259132385,0.5742129683494568,-0.01678706519305706,0.3094085156917572,-0.16691188514232635,0.6877057552337646,-0.22882625460624695,0.03341904282569885,-0.2744205892086029,-0.6379928588867188,0.13546589016914368,0.17710784077644348,-0.9807930588722229,-0.1172395646572113,-0.007013093680143356,-0.8313301205635071,-0.5130181908607483,-0.20127637684345245,-0.2650322914123535,-1.3700155019760132,-0.21449023485183716,0.2116517573595047,-0.05980556830763817,-0.19095474481582642,0.1247466579079628,-0.12414727360010147,-0.24072515964508057,-0.3181704878807068,-0.44022881984710693,-0.08627748489379883,0.0746680349111557,1.190238356590271,-0.048023104667663574,-0.36952710151672363,0.47986289858818054,0.11180835962295532,-0.8967103362083435,-0.10070875287055969,0.012965411879122257,-0.09697679430246353,-0.4936359226703644,0.047522321343421936,-0.2190159112215042,-0.34872934222221375,2.445875406265259,-0.844960629940033,0.23765979707241058,0.24649570882320404,-0.12527397274971008,-0.2554401755332947,0.2437402456998825,0.3699009120464325,0.2977124750614166,-0.3131936490535736,0.5014514327049255,-0.18774935603141785,0.030964668840169907,0.4114972651004791,0.2441566288471222,0.1916673183441162,-0.13223299384117126,0.22686006128787994,-0.33742088079452515,-0.19621847569942474,0.134603351354599,-0.6363582611083984,-0.18848243355751038,-0.17924462258815765,0.06362298130989075,-0.07777316868305206,0.3787561058998108,0.12883369624614716,0.08290248364210129,-0.23617210984230042,0.0237891748547554,0.03242814913392067,-0.39805150032043457,-0.009956775233149529,-0.06382042169570923,0.14333678781986237,-0.0016910065896809101,-0.1411268413066864,-0.03346918523311615,-0.6968982815742493,-0.006411388516426086,-0.11760632693767548,-0.17982886731624603,1.0610193014144897,0.32310816645622253,0.004533152561634779,-0.17244552075862885,-0.11954103410243988,0.3168245255947113,0.4602874517440796,0.3101062774658203,-0.09633421152830124,-0.2305031567811966,0.11650519073009491,-0.20745986700057983,-0.4439978003501892,-0.053581345826387405,0.40698978304862976,-0.3748694360256195,0.17845860123634338,-0.10366838425397873,-0.06152934581041336,-0.2568017244338989,-0.18283520638942719,0.8316951990127563,0.09687680006027222,0.0529610812664032,0.3477880358695984,0.07692645490169525,-0.11417728662490845,-0.25152286887168884,0.011794435791671276,-0.22067299485206604,-0.11673492193222046,-0.06932758539915085,0.18625324964523315,-0.16353797912597656,-0.007348329294472933,-0.3456236720085144,-0.600379228591919,-0.13360238075256348,0.012905768118798733,-0.3546793460845947,0.5193663239479065,-0.5671287775039673,0.1781948208808899,-0.20523491501808167,0.012770522385835648,0.11460249125957489,-0.08483877778053284,-0.05599493160843849,-0.06705977767705917,-0.9346652030944824,0.7201526761054993,-0.15900151431560516,0.07648744434118271,0.20407813787460327,-0.13339537382125854,0.5579005479812622,0.45927339792251587,-0.1376151740550995,-0.3424816131591797,0.038811393082141876,0.5512807369232178,-0.09399585425853729,0.20570476353168488,0.24646113812923431,0.10712374001741409,0.3804856836795807,0.007074523717164993,0.0954761654138565,0.30510812997817993,-0.44924378395080566,0.06409846246242523,0.06106321141123772,-1.156664490699768,-0.16064803302288055,-0.023001670837402344,-0.4669172465801239,0.10038793087005615,0.42187586426734924,0.08699577301740646,0.1928446888923645
house/images.jpeg,0.25453299283981323,0.29002466797828674,-0.20983286201953888,-0.17036326229572296,0.05078725889325142,0.07405611127614975,-0.09489937126636505,0.24342721700668335,0.3199647068977356,0.046173155307769775,-0.1940145641565323,0.08801144361495972,0.07342319190502167,-0.22992898523807526,-0.3344695568084717,-0.3922234773635864,0.7389346361160278,-0.19390448927879333,-0.3739607632160187,0.28192171454429626,1.1875970363616943,-0.21188251674175262,-0.05328148603439331,0.8618082404136658,0.19629882276058197,0.2760065793991089,-0.10330608487129211,0.3185496926307678,-0.10066386312246323,0.571306586265564,0.0769844651222229,-0.46986353397369385,-0.046369247138500214,-0.3174310326576233,-0.1532094031572342,0.42880940437316895,-0.05918499082326889,0.4177362024784088,0.22132179141044617,0.9128232598304749,-0.524745523929596,0.1983974277973175,-0.02658606506884098,-0.34905529022216797,0.36254292726516724,-0.38155242800712585,-0.5632818341255188,-0.01572754606604576,0.027639415115118027,0.08034081757068634,-0.13773109018802643,-0.13419440388679504,-0.04194903373718262,0.08695227652788162,0.11532329767942429,-0.7472088932991028,-0.16832174360752106,0.13353532552719116,0.13599269092082977,0.12772084772586823,-0.5764880180358887,0.48887819051742554,-0.14622020721435547,-0.7040696144104004,-0.47244444489479065,-0.00754620973020792,-0.020528504624962807,-0.21588440239429474,0.24878671765327454,0.2806946337223053,0.06262823194265366,0.13345184922218323,0.07526999711990356,-0.23191572725772858,-0.08276628702878952,-0.043280985206365585,-0.06661150604486465,-0.507732093334198,0.26198193430900574,-0.43914464116096497,-0.4357697367668152,-0.3846406638622284,-0.01611977629363537,0.5335296392440796,0.06203838810324669,-0.2379521131515503,0.41581013798713684,-0.41931048035621643,-0.3095359802246094,0.09092399477958679,-0.014745441265404224,-0.5692453980445862,-5.652673721313477,-0.04295624420046806,-0.237888902425766,-0.019898511469364166,0.5593903660774231,0.5694745779037476,-0.3400360643863678,-0.31140685081481934,-0.08921051770448685,0.20072059333324432,0.10978442430496216,0.12174825370311737,0.01978049986064434,-0.053581900894641876,-1.108040690422058,-0.13910716772079468,0.17604102194309235,0.2961674928665161,-0.0446108803153038,0.5310879349708557,0.17763805389404297,-0.05252548307180405,0.09820753335952759,-0.2257208377122879,-0.3686193823814392,0.28588879108428955,-0.019902285188436508,-0.10869226604700089,0.04320791736245155,0.2796686291694641,0.41775405406951904,0.2407400906085968,0.11042845994234085,0.23423157632350922,-0.2682768702507019,0.31592893600463867,0.07588658481836319,0.2350672334432602,0.25576236844062805,0.05831541121006012,-0.004943186417222023,0.8343048691749573,0.34045761823654175,0.19078704714775085,0.410086065530777,0.43764105439186096,-0.022629428654909134,-0.044450800865888596,0.1376100778579712,0.019005924463272095,0.23376142978668213,0.08442097902297974,0.43406179547309875,-0.00916619598865509,0.04457223042845726,0.13871972262859344,-0.3005875051021576,-0.1453060507774353,0.17058482766151428,-0.16671688854694366,0.9118239283561707,-0.3929726183414459,0.1479170322418213,0.03793555498123169,-0.17167401313781738,0.40844854712486267,-0.42538827657699585,0.03998112678527832,0.5446794629096985,0.2243271917104721,-0.17670485377311707,-0.10079726576805115,0.22924594581127167,0.3998422920703888,-0.7978442311286926,-0.19852972030639648,0.23813146352767944,0.2237432301044464,-0.06526180356740952,-0.017146093770861626,-0.19513419270515442,-0.13538704812526703,-0.2669897973537445,0.8602791428565979,-0.18387015163898468,-0.5033359527587891,-0.6073001027107239,-0.33712995052337646,0.2790989875793457,-0.11002855747938156,-0.07362109422683716,-0.3288969099521637,0.005223059095442295,0.09001130610704422,0.12847548723220825,-0.4004247486591339,0.01636706478893757,-0.1346612274646759,0.41477543115615845,-0.37053436040878296,0.43354296684265137,-0.2093798965215683,-0.5475214719772339,0.24264203011989594,0.13949790596961975,0.37413787841796875,0.11689279973506927,0.26112696528434753,0.15097713470458984,-0.028761733323335648,0.17772549390792847,-0.10986636579036713,0.24708446860313416,-0.1739809364080429,-0.04413636401295662,0.23556990921497345,-0.1699233204126358,0.28240376710891724,0.25504422187805176,-0.13878655433654785,0.04000089317560196,-0.1404469907283783,0.10598089545965195,0.14375993609428406,0.2146577537059784,0.5124279856681824,0.5535366535186768,-0.13518646359443665,0.34315961599349976,0.3892052471637726,0.14554184675216675,-0.1373123824596405,-0.17362520098686218,0.29688388109207153,-0.12287932634353638,-0.3826155662536621,0.10659480839967728,0.1354726105928421,0.044939860701560974,-0.015021591447293758,0.300234317779541,0.8000766634941101,-0.0030474686063826084,0.3863632082939148,-0.41590481996536255,0.013191519305109978,-0.7254520058631897,-0.12480717152357101,0.3839724361896515,0.10142955183982849,-0.25480902194976807,-0.004875744692981243,0.28686824440956116,0.5089028477668762,-0.5729777812957764,-0.13415789604187012,-0.1493394672870636,-0.39538565278053284,0.38309288024902344,0.04253982752561569,0.37019139528274536,0.102349191904068,0.13839289546012878,0.38680869340896606,0.527896523475647,0.24249762296676636,1.9483243227005005,-0.17986278235912323,-0.2424807846546173,-0.5234124064445496,0.05084748938679695,1.3616678714752197,0.14120778441429138,0.22995929419994354,0.20391719043254852,0.5509404540061951,-0.21671435236930847,0.18471451103687286,-0.40309959650039673,-0.16043543815612793,0.3697572648525238,0.35696738958358765,0.11325995624065399,-0.01738983392715454,0.541646420955658,-0.1522125005722046,-0.0865904688835144,-0.6624690294265747,-0.2359963059425354,0.26303407549858093,-0.23916883766651154,0.09904936701059341,0.4155959188938141,-0.040416181087493896,0.5883737802505493,0.06668098270893097,-0.1933186650276184,-0.15057401359081268,-0.13357672095298767,0.07072725892066956,0.4870920479297638,0.1294686645269394,-0.1889859288930893,-0.15416894853115082,-0.06198861822485924,0.020436488091945648,-0.12986545264720917,-0.1126343235373497,-0.3464801013469696,0.015306160785257816,-0.25828754901885986,0.34283968806266785,0.18705883622169495,0.07904284447431564,-0.31828904151916504,0.39351919293403625,0.547381579875946,0.25617632269859314,0.14032122492790222,0.25116491317749023,0.8314607739448547,0.2955920398235321,-0.22777679562568665,0.3222987651824951,0.27606838941574097,0.6634573936462402,-0.0954514890909195,-0.4932175874710083,0.7438929677009583,1.1625890731811523,-0.09680803120136261,0.27086344361305237,0.24962329864501953,-0.5012859106063843,0.666353166103363,0.07106197625398636,0.3177623748779297,-0.07073603570461273,-0.042711205780506134,-0.23753052949905396,0.17328447103500366,-0.22272729873657227,-0.18884511291980743,0.1420346349477768,0.4422365128993988,-0.19520950317382812,0.06603298336267471,0.2957826852798462,-0.10091070830821991,-0.27049195766448975,-0.021539006382226944,0.28997093439102173,0.3902919292449951,0.1659201681613922,0.13034768402576447,0.002757271518930793,-0.12923820316791534,-0.3269672393798828,0.3773318827152252,-0.13756191730499268,0.4057895541191101,-0.11651920527219772,-0.12984123826026917,-0.9853858947753906,-0.2033340334892273,0.36359286308288574,0.1097307950258255,-0.4301513135433197,-0.7006412148475647,-0.29087182879447937,-0.017354262992739677,0.35842040181159973,-0.6276670694351196,0.1572260856628418,0.12761428952217102,0.06396741420030594,0.027364514768123627,-0.07042761892080307,0.1395435780286789,-0.09998471289873123,0.16232670843601227,0.30204054713249207,0.10387514531612396,0.03155871480703354,0.8886823058128357,-0.15842193365097046,0.8770000338554382,0.24816973507404327,-0.3264465928077698,0.1531379073858261,-0.17101772129535675,0.1671716570854187,0.2792610824108124,-0.5421289205551147,-0.17906184494495392,-0.18698468804359436,0.12140332162380219,0.571197509765625,-0.28539779782295227,-0.0899401605129242,-0.24546968936920166,0.24583004415035248,0.03206246718764305,-0.08557694405317307,0.35392025113105774,0.09606225043535233,0.3036576509475708,0.006055641919374466,0.02114531584084034,0.5482842922210693,0.6933852434158325,-0.7330689430236816,0.2741965353488922,-0.1264020800590515,-0.08097977191209793,-0.2398044914007187,0.24796006083488464,-0.12034718692302704,-0.06737819314002991,0.06521174311637878,0.07995480298995972,-0.34079882502555847,0.15479300916194916,0.04630512371659279,-0.4547159671783447,-0.0821342021226883,-0.2758304178714752,0.036313530057668686,0.4190647304058075,-0.13621564209461212,0.28661325573921204,0.018607886508107185,0.23186816275119781,0.1939593255519867,0.24571074545383453,0.5937346816062927,-2.8040177822113037,-0.2891135811805725,-0.03894500061869621,-0.4481024146080017,0.7698253393173218,0.5109174251556396,-0.060907505452632904,0.020068591460585594,-0.43073520064353943,0.24981437623500824,0.054079726338386536,0.15257637202739716,-0.28431814908981323,0.1466589868068695,-0.05011072754859924,0.0318259596824646,0.5516476631164551,-0.059868182986974716,0.3418152928352356,0.21969623863697052,-0.01912185736000538,0.012787421233952045,0.5758244395256042,-0.19932259619235992,-0.0903114303946495,1.041771411895752,-0.17810043692588806,0.5400898456573486,0.3361656367778778,-0.3390428125858307,0.1012207418680191,-0.25850048661231995,0.14596854150295258,0.027431854978203773,0.06863705813884735,0.12743474543094635,-0.0037547373212873936,-0.2095583975315094,-0.2774229943752289,-0.1885959953069687,-0.47886666655540466,0.07673430442810059,0.24902133643627167,-0.2982553541660309,0.6037206649780273,-0.13761451840400696,0.06221552938222885,-0.026361459866166115,-0.25540047883987427,-0.23545844852924347,0.09393662214279175,-0.15953439474105835,-0.1161089539527893,-0.884340226650238,0.2567882835865021,-0.39603009819984436,0.2009594589471817,0.12913690507411957,0.04758226126432419,0.2014787197113037,0.19406969845294952,-0.29747602343559265,-0.06415564566850662,-0.097662553191185,0.5331175327301025,-0.12612660229206085,-0.06164829060435295,0.1550416499376297,0.1991344839334488,0.3673970699310303,0.08260049670934677,0.36456966400146484,0.09469568729400635,-0.40884819626808167,0.3007480800151825,-0.26750442385673523,-0.0504264198243618,0.06677746772766113,-0.20852185785770416,0.3142303228378296,0.01346518937498331,0.23580750823020935,0.15176928043365479,-0.43804389238357544
house/images-castle.jpeg,-0.04585149139165878,0.03746107965707779,-0.3905811309814453,-0.2525957524776459,-0.15871962904930115,0.3029696047306061,0.08805379271507263,0.19368645548820496,-0.10011141747236252,-0.007965713739395142,0.27427804470062256,0.06124438717961311,-0.2087515890598297,-0.10445333272218704,-0.0329967699944973,0.25034722685813904,-0.3509364426136017,-0.10119859129190445,0.2316383719444275,0.2842855751514435,0.3048687279224396,0.32805705070495605,0.1884753406047821,-0.11406265199184418,-0.3808654248714447,0.22581849992275238,-0.0839730054140091,-0.08008792996406555,-0.336404025554657,0.1387658268213272,-0.0793464258313179,-0.3055887818336487,0.11274310946464539,-0.16615208983421326,0.7850325703620911,0.23372885584831238,-0.2694656550884247,0.22476984560489655,0.012590433470904827,1.8957587480545044,0.11892208456993103,0.23396514356136322,-0.05725151300430298,-0.013400031253695488,0.6317834854125977,-1.9310286045074463,-0.6863561868667603,0.58479905128479,0.5942748785018921,0.580106794834137,0.40373411774635315,-0.14466354250907898,-0.03889727592468262,0.45845863223075867,0.26223668456077576,-0.21371705830097198,0.02319708839058876,-0.35688889026641846,-0.0887790396809578,0.06269258260726929,0.5942325592041016,-0.010450851172208786,0.26909366250038147,0.11323580890893936,-0.17022114992141724,0.6467249393463135,0.12853078544139862,-0.5939909815788269,-0.21310783922672272,-0.44441360235214233,0.026438569650053978,-0.18276746571063995,-0.4719216525554657,-0.3528033494949341,-0.025758501142263412,0.04085656628012657,-0.2633647322654724,-0.9222978353500366,0.07669960707426071,0.4271578788757324,0.2655435800552368,0.1464095264673233,-0.04365585371851921,0.7584604620933533,0.00967723224312067,-0.26608556509017944,-0.819858968257904,0.18851669132709503,-0.7992737293243408,-0.0016093319281935692,0.2195616066455841,-0.3006710708141327,-4.563493251800537,1.187533974647522,-0.16196753084659576,0.26276758313179016,-0.25253400206565857,0.3087500035762787,-0.13583998382091522,-0.9480693936347961,0.1913561224937439,0.12811170518398285,0.06367418169975281,0.08574515581130981,1.023327350616455,0.2583457827568054,-0.018177760764956474,-0.06211322173476219,0.26887989044189453,0.27573174238204956,0.06455240398645401,-0.1937311589717865,-0.11549783498048782,0.05188401788473129,-0.0212716031819582,0.5379310250282288,0.2872896194458008,-0.10804470628499985,-0.14962926506996155,-0.10816629976034164,-0.29287296533584595,0.5281542539596558,0.09091157466173172,0.11495248228311539,-0.490820974111557,0.3007197082042694,0.26894837617874146,-0.12327174842357635,-0.05537888780236244,0.36973118782043457,-0.14802931249141693,0.11194661259651184,0.19296614825725555,0.7768785953521729,0.45780646800994873,0.25277039408683777,-0.4503135681152344,-0.1501040905714035,-0.0611606128513813,0.2047634869813919,-0.025757547467947006,-0.027174368500709534,0.29119521379470825,0.4081094563007355,-0.06908348202705383,0.4302356243133545,0.1096000149846077,0.11742528527975082,-0.08800489455461502,-0.09042087197303772,0.19367064535617828,0.0009818365797400475,1.2488856315612793,-0.30757033824920654,0.047687675803899765,-0.2178717851638794,0.1030653789639473,0.06410236656665802,-0.3757143020629883,0.11551297456026077,0.0124481450766325,0.4240265190601349,0.2458803355693817,-0.25298652052879333,0.07871001213788986,0.26878538727760315,0.6097769141197205,-0.17755359411239624,-0.28774186968803406,0.4519752860069275,0.30241551995277405,-0.324652761220932,-0.011174635030329227,0.19072729349136353,-0.3568609058856964,0.11791019141674042,0.4435160756111145,-0.11947206407785416,-0.3309759497642517,0.4870588481426239,-0.4102528691291809,0.038033563643693924,0.1993681639432907,-0.4038846492767334,-0.40922296047210693,-0.28178533911705017,0.08210507780313492,0.08411981910467148,0.3190761208534241,-0.3449864387512207,-0.4028940200805664,-0.34368547797203064,0.5474416613578796,-0.05479176342487335,-0.14621447026729584,0.2541157603263855,0.21170637011528015,-0.09323832392692566,0.0017742069903761148,-0.0358642153441906,0.34306788444519043,-0.17123758792877197,0.09914728254079819,-0.345807284116745,0.3115047812461853,-0.16638076305389404,-0.24362246692180634,0.10951899737119675,0.5588341951370239,0.022383885458111763,0.11598624289035797,-0.4407704770565033,-0.3796042799949646,0.017771465703845024,-0.010085240006446838,0.48406365513801575,-0.231620192527771,-0.027107518166303635,-0.11483119428157806,-0.6747909188270569,0.2086365967988968,1.114121437072754,-0.31995224952697754,0.07169872522354126,0.2142585813999176,-0.4371885657310486,0.2604820430278778,-0.05278388038277626,-0.014854278415441513,0.21997778117656708,-0.01930561661720276,-0.22258642315864563,0.2841133773326874,0.07667255401611328,-0.49778372049331665,1.1370317935943604,-0.5502356886863708,-0.2261206954717636,-0.1847580075263977,-0.15971890091896057,0.5566303133964539,0.21977598965168,0.48141568899154663,-0.4003617465496063,-0.19847607612609863,0.22209809720516205,0.004379686899483204,-0.3387850522994995,0.18889367580413818,-0.4812440574169159,-0.7615682482719421,0.5300012230873108,0.46835047006607056,0.04709094390273094,-0.1156921312212944,0.08647987246513367,-0.4655819535255432,-0.21784843504428864,-0.9824320077896118,-0.002292378107085824,-0.4149988293647766,-0.014195490628480911,-0.1572640985250473,1.8801288604736328,0.30148395895957947,0.3146817684173584,-0.20082135498523712,0.005444577895104885,-0.06290851533412933,0.0897984653711319,0.0729173794388771,-0.02802509069442749,-0.18393535912036896,-0.19948704540729523,-0.3591635227203369,0.12268908321857452,0.14485368132591248,-0.3528915047645569,-0.4965231120586395,0.004468708764761686,-0.37549376487731934,0.06875206530094147,0.09319348633289337,0.12398937344551086,-0.24492782354354858,0.12866421043872833,-1.1276062726974487,-0.27966901659965515,-0.7008764147758484,-0.22644972801208496,-0.12140461802482605,0.34098654985427856,0.39781680703163147,-0.045345693826675415,-0.014000890776515007,-0.3085670471191406,0.5219226479530334,0.022531183436512947,-0.05452406406402588,0.35045188665390015,-0.23735809326171875,0.08121829479932785,-0.7320477962493896,0.21959221363067627,0.10644183307886124,-0.28745290637016296,0.12466900050640106,0.15812097489833832,0.43417999148368835,0.13470056653022766,0.004148510284721851,0.39166468381881714,0.7727335095405579,-0.3014222979545593,-0.06142597272992134,-0.05209675058722496,0.8026273846626282,-0.4064502418041229,0.6176392436027527,0.06216462329030037,-0.0537567064166069,0.0449507012963295,-0.21827192604541779,-0.39185959100723267,-0.18490271270275116,-0.2277759164571762,0.6891487240791321,-0.21028125286102295,-0.1803492158651352,-0.46480023860931396,-0.30273690819740295,-0.0679817795753479,0.3503609895706177,-0.2689976096153259,-0.19508488476276398,-0.19931837916374207,0.19408480823040009,0.10117954760789871,0.5154484510421753,-0.10400351136922836,0.1707405149936676,0.4635649621486664,-0.341582715511322,-0.01815992221236229,-0.03331835940480232,-0.04359309747815132,-0.2740194499492645,-0.4354912042617798,-0.24753448367118835,0.13050612807273865,0.20633293688297272,-0.09760782122612,0.007024507969617844,0.032510723918676376,-0.2372402399778366,-0.41197410225868225,0.007192816119641066,-1.1764317750930786,-0.06525269150733948,0.511616587638855,-0.548733651638031,-0.6655785441398621,0.3676610291004181,-0.33271095156669617,-1.179951548576355,0.1393149197101593,0.5111806988716125,-1.2415854930877686,-0.0031071193516254425,0.4130636751651764,0.10917804390192032,0.00909220241010189,-0.14027458429336548,-0.319139301776886,-0.23717305064201355,0.6685779094696045,1.0716416835784912,-0.26686254143714905,1.318023443222046,0.4991978704929352,0.15168030560016632,-0.6104211807250977,-0.4307454526424408,-0.026798715814948082,0.28763216733932495,-0.16183453798294067,0.17628978192806244,0.1664300411939621,0.019910262897610664,1.1765409708023071,-0.02486075833439827,-0.08900702744722366,0.023019421845674515,0.25393491983413696,0.029568178579211235,0.07406384497880936,0.1340002715587616,-0.2256559282541275,0.08665620535612106,-0.08249881118535995,-0.23405654728412628,0.09779024869203568,-0.3733479082584381,-0.21687009930610657,0.5545707941055298,-0.5391461849212646,0.030399123206734657,0.7031356692314148,0.29295405745506287,0.14486338198184967,-0.5537317991256714,-0.377840518951416,0.47581738233566284,-0.15025854110717773,-0.1994112879037857,0.09626702964305878,0.1251911073923111,-0.5531740188598633,0.2098967283964157,-0.3214316964149475,-0.022449294105172157,0.019611533731222153,0.02676497772336006,-0.38820648193359375,-0.2766311764717102,0.07315634191036224,-0.10161494463682175,0.33195960521698,-0.5443377494812012,-0.08710726350545883,0.34571918845176697,-0.3701379597187042,0.4792569577693939,-0.3520802855491638,0.12807485461235046,0.44146355986595154,0.07492528110742569,-0.37958139181137085,-0.4339038133621216,-0.04449025169014931,-0.3201489746570587,0.32465213537216187,0.07198818773031235,0.03580615669488907,-0.18795786798000336,0.3771112263202667,0.13590459525585175,-0.07547055929899216,-0.43422067165374756,0.18693046271800995,-0.824316680431366,-0.010722843930125237,0.06341257691383362,0.18233294785022736,-0.7229248881340027,0.37080860137939453,0.47645366191864014,-0.218765527009964,-0.15193146467208862,0.06023722141981125,-0.5590075254440308,0.05732760950922966,0.06891855597496033,0.5195308327674866,0.20220643281936646,0.5698514580726624,0.05125061795115471,0.04232592508196831,-0.258262574672699,-0.28592878580093384,-0.16658034920692444,0.02585730329155922,0.2841953933238983,0.048407331109046936,0.6011435389518738,-0.5921088457107544,-0.1139889657497406,0.12214890867471695,-0.2692551016807556,-0.3988579213619232,-0.075416699051857,-0.5866842269897461,0.21846458315849304,-0.03711403161287308,0.3489658534526825,0.128753200173378,0.45582500100135803,-0.2722126245498657,0.19582317769527435,-0.2533324360847473,0.1013227328658104,-0.1655791699886322,0.414505273103714,-0.3183104991912842,-0.11921043694019318,0.3361506760120392,0.22015351057052612,-0.3107704818248749,0.37074410915374756,-0.3486992418766022,0.3363605737686157,-0.05772779881954193,-0.07824943959712982,0.10124339908361435,-0.41527628898620605,-0.09076111018657684,-0.07280712574720383,0.09607461094856262,0.0017572076758369803,-0.09642256051301956,0.18282385170459747,0.02670927532017231
house/house1.jpg,0.03369849920272827,0.22758977115154266,0.10944153368473053,-0.21910573542118073,0.3791341185569763,-0.22983860969543457,-0.1411243975162506,0.2595522105693817,0.032677631825208664,0.0790087878704071,-0.13525335490703583,0.013724738731980324,0.7129964232444763,-0.2043631672859192,-0.06556961685419083,0.0152289979159832,-0.12528368830680847,-0.32749414443969727,-0.18128734827041626,0.43182581663131714,0.9219159483909607,-0.08681843429803848,-0.16129310429096222,0.828865647315979,-0.037452332675457,0.14704659581184387,-0.16214101016521454,0.05347851291298866,0.1021767109632492,0.27097299695014954,-0.014358305372297764,-0.026043282821774483,-0.18032042682170868,-0.01928219385445118,-0.08541292697191238,0.4594498872756958,0.14195358753204346,0.01162446103990078,0.5006136894226074,1.274189829826355,-0.11056024581193924,-0.10674706101417542,-0.15905721485614777,-1.0594016313552856,-0.18439917266368866,-1.6541491746902466,-0.2594529390335083,-0.3865297734737396,0.2709636688232422,-0.1013140082359314,0.10509593784809113,0.17507022619247437,0.08889392763376236,-0.0004694863164331764,-0.018073422834277153,-0.1931418776512146,-0.036973435431718826,0.07918857038021088,-0.13674402236938477,-0.32954320311546326,-0.9492784738540649,-0.23239751160144806,0.18305079638957977,-0.15415023267269135,-0.35861095786094666,-0.13973873853683472,0.045161254703998566,-0.2615044116973877,-0.23709744215011597,0.2198350429534912,0.0005060836556367576,0.09910330176353455,-0.07635606825351715,0.12689320743083954,-0.5100758671760559,-0.01953691430389881,-0.09074799716472626,-0.06912935525178909,0.11971770226955414,-0.30001288652420044,-0.03940450772643089,-0.48917946219444275,-0.1665339320898056,0.327382355928421,-0.2645002603530884,-0.3159434199333191,0.6196027994155884,-0.5543681383132935,0.12494122982025146,-0.06831157952547073,0.1330103576183319,-0.6264957785606384,-5.697755813598633,-0.09115254878997803,-0.2058388888835907,-0.09391382336616516,0.21368388831615448,0.00573805021122098,-0.13014741241931915,-0.5888282060623169,0.010358513332903385,-0.00651407428085804,-0.25392845273017883,0.049169305711984634,-0.18446506559848785,-0.00813304539769888,-1.5230185985565186,-0.21576136350631714,0.03571943938732147,-0.055966176092624664,-0.3121333718299866,0.09325063973665237,0.04465236887335777,-0.16547219455242157,0.34229689836502075,-0.15832345187664032,-0.047287482768297195,0.27765002846717834,0.2011246383190155,-0.19324207305908203,0.08896341174840927,0.7316393852233887,0.40836721658706665,-0.1857074797153473,0.1148621067404747,0.20904353260993958,-0.16191260516643524,0.2612350881099701,0.3725470304489136,0.18205218017101288,0.5361969470977783,0.3026340901851654,-0.05403152480721474,0.7606842517852783,0.5364777445793152,0.1252078413963318,0.10458716005086899,0.6420817971229553,-0.15185436606407166,-0.1879209280014038,0.10007557272911072,0.1003236472606659,0.3614610433578491,0.03520375117659569,0.14531828463077545,0.10885876417160034,-0.13996288180351257,-0.0428188182413578,-0.45831361413002014,-0.2745932638645172,0.20032444596290588,-0.04499489441514015,1.0926156044006348,-0.6732205152511597,0.20799708366394043,-0.49551886320114136,0.07496520131826401,0.21761882305145264,-0.5064825415611267,0.17496035993099213,0.3304691016674042,-0.380819708108902,-0.761263906955719,-0.21931403875350952,0.13918527960777283,-0.009047233499586582,-0.31885549426078796,0.06573890149593353,0.15440461039543152,-0.09216044843196869,0.05675119534134865,-0.21452727913856506,-0.3201974630355835,0.005483261309564114,0.22658349573612213,0.03312608599662781,-0.09833594411611557,-0.06217951327562332,-0.9963316917419434,-0.19437552988529205,0.30186527967453003,-0.434419721364975,0.049142371863126755,-0.3750246465206146,0.028846781700849533,0.1701032966375351,-0.07970578223466873,-0.17646268010139465,-0.04652724787592888,0.061330992728471756,-0.27783557772636414,-0.49993184208869934,-0.3170183598995209,-0.48444864153862,-0.9368640184402466,0.027612389996647835,-0.1450883001089096,0.3575272858142853,-0.4246719479560852,0.3277760148048401,-0.052801813930273056,0.06297791004180908,0.1824202835559845,0.1539846509695053,0.48467156291007996,-0.5378209352493286,0.10255473852157593,-0.19030790030956268,-0.5829474925994873,0.4249233305454254,0.21809859573841095,-0.5037039518356323,-0.08769357949495316,-0.033477235585451126,-0.1680431365966797,-0.023115083575248718,0.06124834343791008,0.300313264131546,1.0340982675552368,0.11471644043922424,-0.16111774742603302,0.41939446330070496,0.15145725011825562,-0.06931650638580322,-0.24189642071723938,0.15809829533100128,-0.3278892934322357,-0.464112251996994,-0.38644230365753174,0.1492525041103363,0.2639278769493103,-0.03002134896814823,-0.07759585231542587,0.9447763562202454,0.3244176208972931,0.7135346531867981,-0.20659750699996948,0.09767067432403564,-0.3588271737098694,-0.17921394109725952,0.04222530126571655,-0.000489675672724843,0.046765584498643875,0.12024189531803131,0.06984719634056091,-0.02747991681098938,-0.14781875908374786,-0.4455298185348511,-0.1526922881603241,-0.033921901136636734,1.0043574571609497,-0.12806276977062225,0.3721105456352234,0.05217037349939346,-0.35500186681747437,0.4799436926841736,0.025228502228856087,0.4627113342285156,0.9556084275245667,0.31471970677375793,-0.03948897495865822,-0.04043175280094147,0.1469152867794037,0.29075321555137634,0.2879599928855896,-0.09478732198476791,-0.23819522559642792,0.4497673809528351,-0.14573734998703003,0.18180567026138306,-0.1273735910654068,0.3059680163860321,0.32101601362228394,0.28817427158355713,0.15932106971740723,-0.4657757878303528,-0.045359160751104355,0.011734740808606148,0.10654979944229126,-0.17392106354236603,-0.13074544072151184,0.14122654497623444,0.05069234222173691,-0.16972023248672485,0.012650171294808388,0.26399075984954834,-0.005693833809345961,0.03402988985180855,-0.021604573354125023,-0.3156472444534302,-0.100285604596138,-0.07518675923347473,0.5515509247779846,0.22867541015148163,-0.526025116443634,0.08538304269313812,-0.8178379535675049,-0.18976065516471863,0.40442386269569397,-0.1434190720319748,-0.14354442059993744,-0.3483104705810547,-0.0780530646443367,-0.04549821838736534,0.569957971572876,-0.6331531405448914,-0.26518774032592773,0.2613976001739502,0.750990092754364,0.21256741881370544,-0.2929362952709198,0.03989553824067116,0.7588925361633301,0.103014275431633,-0.049249317497015,0.3597243130207062,0.12190111726522446,0.34063613414764404,-0.21417619287967682,-0.06931173801422119,0.5201061367988586,0.28682056069374084,-0.10194678604602814,-0.06002155691385269,0.061469800770282745,-0.30308929085731506,0.2767326533794403,0.33021774888038635,0.09011471271514893,-0.2877323627471924,-0.18890410661697388,-0.34930872917175293,0.05931318551301956,0.13013947010040283,-0.2874741852283478,0.3060823678970337,0.17650601267814636,-0.11325746029615402,-0.38446059823036194,0.2524670660495758,0.17150959372520447,-0.4268999397754669,-0.12395327538251877,0.441845566034317,0.40279653668403625,0.2862342298030853,0.231653094291687,-0.023191988468170166,-0.039968736469745636,-0.709397554397583,-0.21487461030483246,0.07790043205022812,-0.05790766328573227,-0.33439183235168457,-0.09985873103141785,0.023175694048404694,-0.15326793491840363,-0.05046097934246063,-0.018684394657611847,-0.34076401591300964,-0.42983487248420715,0.09830591827630997,-0.05435141175985336,0.34517571330070496,-0.862524151802063,0.05508492514491081,-0.06566468626260757,0.1283598095178604,0.037879444658756256,0.2538459897041321,0.12777797877788544,-0.32128357887268066,0.13987278938293457,0.10646995902061462,0.5479210615158081,0.22619661688804626,0.9657257199287415,0.11963117867708206,0.5316981077194214,-0.17170484364032745,-0.2113025188446045,0.18804927170276642,-0.2490706890821457,-0.19523398578166962,0.46087905764579773,-0.3255094289779663,-0.28620848059654236,-0.05093816667795181,-0.017271757125854492,-1.478861927986145,-0.15002205967903137,0.6701411604881287,-0.034080274403095245,-0.05633831396698952,0.10655009001493454,0.18637408316135406,-0.07752937078475952,0.3114335834980011,0.024240432307124138,-0.2463451325893402,-0.10420858860015869,0.5118440985679626,0.6826670169830322,-0.40634632110595703,0.1866430640220642,0.1196838766336441,0.035525478422641754,-0.1632007360458374,0.12723951041698456,0.2264595627784729,-0.26251059770584106,0.034025274217128754,0.22435392439365387,-0.020768245682120323,-0.23950821161270142,-0.18760962784290314,-0.4604671597480774,0.2182672619819641,-0.3026042878627777,-0.32196956872940063,0.3820221722126007,-0.3288746774196625,0.4531291723251343,-0.5894278883934021,0.2191615253686905,0.3095296025276184,-0.03501376882195473,0.2406798005104065,-3.2671942710876465,-0.20609599351882935,-0.17944087088108063,-0.6813942193984985,1.062368631362915,0.06602274626493454,0.09092732518911362,-0.3282530903816223,-0.007955122739076614,0.08165426552295685,0.20454226434230804,0.28799349069595337,-0.018191734328866005,-0.09646862745285034,0.47113463282585144,0.18493525683879852,-0.12265460193157196,-0.6124042868614197,-0.05605504289269447,0.2935190498828888,-0.16267523169517517,-0.09429595619440079,0.5655558109283447,-0.15713655948638916,-0.15137791633605957,0.4088740348815918,-0.21201616525650024,0.09766276925802231,0.5946520566940308,-0.31833603978157043,0.021113956347107887,0.09338677674531937,0.25029951333999634,0.16532334685325623,0.018089525401592255,-0.15571923553943634,-0.11944644898176193,-0.1505798101425171,-0.12997376918792725,-0.4280542731285095,-0.6439701318740845,-0.16403813660144806,-0.07181993126869202,0.03492314741015434,0.540646493434906,-0.49783411622047424,0.3113662898540497,0.07300448417663574,-0.20867419242858887,-0.10011272132396698,-0.044471271336078644,-0.10890542715787888,-0.15828678011894226,-0.5418549180030823,-0.0025857584550976753,-0.05715416744351387,0.18283116817474365,-0.09633026272058487,-0.35466980934143066,0.19539961218833923,-0.02531088888645172,-0.7918921113014221,0.08260621130466461,-0.19740433990955353,0.6476497650146484,0.3611006736755371,-0.2015122026205063,0.2438916563987732,0.09511107206344604,0.3430846631526947,0.2513345777988434,0.1201576441526413,0.005654730834066868,-0.38900065422058105,-0.04882185906171799,0.1371058225631714,0.5314226150512695,0.20324577391147614,-0.4284154176712036,0.29715320467948914,0.11778659373521805,0.5993592143058777,0.17502997815608978,-0.4972335696220398
